digraph Tree {
node [shape=box, style="filled, rounded", color="black", fontname=helvetica] ;
edge [fontname=helvetica] ;
0 [label=<timeMax &le; 5.5<br/>gini = 0.157<br/>samples = 4771<br/>value = [4361, 410]<br/>class = 0>, fillcolor="#e58139e7"] ;
1 [label=<ICHCC06 &le; 0.5<br/>gini = 0.104<br/>samples = 2390<br/>value = [2258, 132]<br/>class = 0>, fillcolor="#e58139f0"] ;
0 -> 1 [labeldistance=2.5, labelangle=45, headlabel="True"] ;
2 [label=<Processing_reflective &le; 0.5<br/>gini = 0.079<br/>samples = 1587<br/>value = [1522, 65]<br/>class = 0>, fillcolor="#e58139f4"] ;
1 -> 2 ;
3 [label=<gini = 0.0<br/>samples = 180<br/>value = [180, 0]<br/>class = 0>, fillcolor="#e58139ff"] ;
2 -> 3 ;
4 [label=<typicalLearningTime &le; 685.0<br/>gini = 0.088<br/>samples = 1407<br/>value = [1342, 65]<br/>class = 0>, fillcolor="#e58139f3"] ;
2 -> 4 ;
5 [label=<ICFSOOC03 &le; 0.5<br/>gini = 0.046<br/>samples = 515<br/>value = [503, 12]<br/>class = 0>, fillcolor="#e58139f9"] ;
4 -> 5 ;
6 [label=<typicalLearningTime &le; 164.0<br/>gini = 0.023<br/>samples = 255<br/>value = [252, 3]<br/>class = 0>, fillcolor="#e58139fc"] ;
5 -> 6 ;
7 [label=<gini = 0.117<br/>samples = 32<br/>value = [30, 2]<br/>class = 0>, fillcolor="#e58139ee"] ;
6 -> 7 ;
8 [label=<Representation_verbal &le; 0.5<br/>gini = 0.009<br/>samples = 223<br/>value = [222, 1]<br/>class = 0>, fillcolor="#e58139fe"] ;
6 -> 8 ;
9 [label=<gini = 0.0<br/>samples = 181<br/>value = [181, 0]<br/>class = 0>, fillcolor="#e58139ff"] ;
8 -> 9 ;
10 [label=<gini = 0.046<br/>samples = 42<br/>value = [41, 1]<br/>class = 0>, fillcolor="#e58139f9"] ;
8 -> 10 ;
11 [label=<Difficulty.VERY_EASY &le; 0.5<br/>gini = 0.067<br/>samples = 260<br/>value = [251, 9]<br/>class = 0>, fillcolor="#e58139f6"] ;
5 -> 11 ;
12 [label=<MoreThanOneConcept &le; 0.5<br/>gini = 0.027<br/>samples = 145<br/>value = [143, 2]<br/>class = 0>, fillcolor="#e58139fb"] ;
11 -> 12 ;
13 [label=<gini = 0.0<br/>samples = 117<br/>value = [117, 0]<br/>class = 0>, fillcolor="#e58139ff"] ;
12 -> 13 ;
14 [label=<gini = 0.133<br/>samples = 28<br/>value = [26, 2]<br/>class = 0>, fillcolor="#e58139eb"] ;
12 -> 14 ;
15 [label=<typicalLearningTime &le; 455.5<br/>gini = 0.114<br/>samples = 115<br/>value = [108, 7]<br/>class = 0>, fillcolor="#e58139ee"] ;
11 -> 15 ;
16 [label=<typicalLearningTime &le; 239.0<br/>gini = 0.049<br/>samples = 80<br/>value = [78, 2]<br/>class = 0>, fillcolor="#e58139f8"] ;
15 -> 16 ;
17 [label=<gini = 0.133<br/>samples = 28<br/>value = [26, 2]<br/>class = 0>, fillcolor="#e58139eb"] ;
16 -> 17 ;
18 [label=<gini = 0.0<br/>samples = 52<br/>value = [52, 0]<br/>class = 0>, fillcolor="#e58139ff"] ;
16 -> 18 ;
19 [label=<gini = 0.245<br/>samples = 35<br/>value = [30, 5]<br/>class = 0>, fillcolor="#e58139d4"] ;
15 -> 19 ;
20 [label=<typicalLearningTime &le; 1835.0<br/>gini = 0.112<br/>samples = 892<br/>value = [839, 53]<br/>class = 0>, fillcolor="#e58139ef"] ;
4 -> 20 ;
21 [label=<typicalLearningTime &le; 1649.5<br/>gini = 0.152<br/>samples = 507<br/>value = [465, 42]<br/>class = 0>, fillcolor="#e58139e8"] ;
20 -> 21 ;
22 [label=<typicalLearningTime &le; 1314.0<br/>gini = 0.129<br/>samples = 447<br/>value = [416, 31]<br/>class = 0>, fillcolor="#e58139ec"] ;
21 -> 22 ;
23 [label=<typicalLearningTime &le; 1225.0<br/>gini = 0.16<br/>samples = 341<br/>value = [311, 30]<br/>class = 0>, fillcolor="#e58139e6"] ;
22 -> 23 ;
24 [label=<Difficulty.VERY_EASY &le; 0.5<br/>gini = 0.133<br/>samples = 308<br/>value = [286, 22]<br/>class = 0>, fillcolor="#e58139eb"] ;
23 -> 24 ;
25 [label=<Format.VIDEO_MP4 &le; 0.5<br/>gini = 0.181<br/>samples = 209<br/>value = [188, 21]<br/>class = 0>, fillcolor="#e58139e3"] ;
24 -> 25 ;
26 [label=<typicalLearningTime &le; 921.5<br/>gini = 0.109<br/>samples = 138<br/>value = [130, 8]<br/>class = 0>, fillcolor="#e58139ef"] ;
25 -> 26 ;
27 [label=<Difficulty.MEDIUM &le; 0.5<br/>gini = 0.195<br/>samples = 64<br/>value = [57, 7]<br/>class = 0>, fillcolor="#e58139e0"] ;
26 -> 27 ;
28 [label=<gini = 0.069<br/>samples = 28<br/>value = [27, 1]<br/>class = 0>, fillcolor="#e58139f6"] ;
27 -> 28 ;
29 [label=<gini = 0.278<br/>samples = 36<br/>value = [30, 6]<br/>class = 0>, fillcolor="#e58139cc"] ;
27 -> 29 ;
30 [label=<Difficulty.MEDIUM &le; 0.5<br/>gini = 0.027<br/>samples = 74<br/>value = [73, 1]<br/>class = 0>, fillcolor="#e58139fc"] ;
26 -> 30 ;
31 [label=<gini = 0.069<br/>samples = 28<br/>value = [27, 1]<br/>class = 0>, fillcolor="#e58139f6"] ;
30 -> 31 ;
32 [label=<gini = 0.0<br/>samples = 46<br/>value = [46, 0]<br/>class = 0>, fillcolor="#e58139ff"] ;
30 -> 32 ;
33 [label=<Representation_visual &le; 0.5<br/>gini = 0.299<br/>samples = 71<br/>value = [58, 13]<br/>class = 0>, fillcolor="#e58139c6"] ;
25 -> 33 ;
34 [label=<gini = 0.349<br/>samples = 40<br/>value = [31, 9]<br/>class = 0>, fillcolor="#e58139b5"] ;
33 -> 34 ;
35 [label=<gini = 0.225<br/>samples = 31<br/>value = [27, 4]<br/>class = 0>, fillcolor="#e58139d9"] ;
33 -> 35 ;
36 [label=<typicalLearningTime &le; 819.5<br/>gini = 0.02<br/>samples = 99<br/>value = [98, 1]<br/>class = 0>, fillcolor="#e58139fc"] ;
24 -> 36 ;
37 [label=<gini = 0.067<br/>samples = 29<br/>value = [28, 1]<br/>class = 0>, fillcolor="#e58139f6"] ;
36 -> 37 ;
38 [label=<gini = 0.0<br/>samples = 70<br/>value = [70, 0]<br/>class = 0>, fillcolor="#e58139ff"] ;
36 -> 38 ;
39 [label=<gini = 0.367<br/>samples = 33<br/>value = [25, 8]<br/>class = 0>, fillcolor="#e58139ad"] ;
23 -> 39 ;
40 [label=<Difficulty.DIFFICULT &le; 0.5<br/>gini = 0.019<br/>samples = 106<br/>value = [105, 1]<br/>class = 0>, fillcolor="#e58139fd"] ;
22 -> 40 ;
41 [label=<gini = 0.0<br/>samples = 75<br/>value = [75, 0]<br/>class = 0>, fillcolor="#e58139ff"] ;
40 -> 41 ;
42 [label=<gini = 0.062<br/>samples = 31<br/>value = [30, 1]<br/>class = 0>, fillcolor="#e58139f6"] ;
40 -> 42 ;
43 [label=<ICFBD02 &le; 0.5<br/>gini = 0.299<br/>samples = 60<br/>value = [49, 11]<br/>class = 0>, fillcolor="#e58139c6"] ;
21 -> 43 ;
44 [label=<gini = 0.337<br/>samples = 28<br/>value = [22, 6]<br/>class = 0>, fillcolor="#e58139b9"] ;
43 -> 44 ;
45 [label=<gini = 0.264<br/>samples = 32<br/>value = [27, 5]<br/>class = 0>, fillcolor="#e58139d0"] ;
43 -> 45 ;
46 [label=<MoreThanOneConcept &le; 0.5<br/>gini = 0.056<br/>samples = 385<br/>value = [374, 11]<br/>class = 0>, fillcolor="#e58139f8"] ;
20 -> 46 ;
47 [label=<ICSN02 &le; 0.5<br/>gini = 0.035<br/>samples = 280<br/>value = [275, 5]<br/>class = 0>, fillcolor="#e58139fa"] ;
46 -> 47 ;
48 [label=<gini = 0.0<br/>samples = 134<br/>value = [134, 0]<br/>class = 0>, fillcolor="#e58139ff"] ;
47 -> 48 ;
49 [label=<Difficulty.VERY_DIFFICULT &le; 0.5<br/>gini = 0.066<br/>samples = 146<br/>value = [141, 5]<br/>class = 0>, fillcolor="#e58139f6"] ;
47 -> 49 ;
50 [label=<Representation_visual &le; 0.5<br/>gini = 0.035<br/>samples = 113<br/>value = [111, 2]<br/>class = 0>, fillcolor="#e58139fa"] ;
49 -> 50 ;
51 [label=<sensorial_intuitivo &le; 0.0<br/>gini = 0.067<br/>samples = 58<br/>value = [56, 2]<br/>class = 0>, fillcolor="#e58139f6"] ;
50 -> 51 ;
52 [label=<gini = 0.124<br/>samples = 30<br/>value = [28, 2]<br/>class = 0>, fillcolor="#e58139ed"] ;
51 -> 52 ;
53 [label=<gini = 0.0<br/>samples = 28<br/>value = [28, 0]<br/>class = 0>, fillcolor="#e58139ff"] ;
51 -> 53 ;
54 [label=<gini = 0.0<br/>samples = 55<br/>value = [55, 0]<br/>class = 0>, fillcolor="#e58139ff"] ;
50 -> 54 ;
55 [label=<gini = 0.165<br/>samples = 33<br/>value = [30, 3]<br/>class = 0>, fillcolor="#e58139e6"] ;
49 -> 55 ;
56 [label=<Representation_visual &le; 0.5<br/>gini = 0.108<br/>samples = 105<br/>value = [99, 6]<br/>class = 0>, fillcolor="#e58139f0"] ;
46 -> 56 ;
57 [label=<gini = 0.054<br/>samples = 36<br/>value = [35, 1]<br/>class = 0>, fillcolor="#e58139f8"] ;
56 -> 57 ;
58 [label=<Format.VIDEO_MP4 &le; 0.5<br/>gini = 0.134<br/>samples = 69<br/>value = [64, 5]<br/>class = 0>, fillcolor="#e58139eb"] ;
56 -> 58 ;
59 [label=<gini = 0.18<br/>samples = 40<br/>value = [36, 4]<br/>class = 0>, fillcolor="#e58139e3"] ;
58 -> 59 ;
60 [label=<gini = 0.067<br/>samples = 29<br/>value = [28, 1]<br/>class = 0>, fillcolor="#e58139f6"] ;
58 -> 60 ;
61 [label=<typicalLearningTime &le; 7344.0<br/>gini = 0.153<br/>samples = 803<br/>value = [736, 67]<br/>class = 0>, fillcolor="#e58139e8"] ;
1 -> 61 ;
62 [label=<typicalLearningTime &le; 987.5<br/>gini = 0.142<br/>samples = 769<br/>value = [710, 59]<br/>class = 0>, fillcolor="#e58139ea"] ;
61 -> 62 ;
63 [label=<typicalLearningTime &le; 830.0<br/>gini = 0.174<br/>samples = 394<br/>value = [356, 38]<br/>class = 0>, fillcolor="#e58139e4"] ;
62 -> 63 ;
64 [label=<typicalLearningTime &le; 520.0<br/>gini = 0.129<br/>samples = 318<br/>value = [296, 22]<br/>class = 0>, fillcolor="#e58139ec"] ;
63 -> 64 ;
65 [label=<typicalLearningTime &le; 169.0<br/>gini = 0.105<br/>samples = 233<br/>value = [220, 13]<br/>class = 0>, fillcolor="#e58139f0"] ;
64 -> 65 ;
66 [label=<gini = 0.213<br/>samples = 33<br/>value = [29, 4]<br/>class = 0>, fillcolor="#e58139dc"] ;
65 -> 66 ;
67 [label=<Representation_visual &le; 0.5<br/>gini = 0.086<br/>samples = 200<br/>value = [191, 9]<br/>class = 0>, fillcolor="#e58139f3"] ;
65 -> 67 ;
68 [label=<typicalLearningTime &le; 400.0<br/>gini = 0.059<br/>samples = 132<br/>value = [128, 4]<br/>class = 0>, fillcolor="#e58139f7"] ;
67 -> 68 ;
69 [label=<Understanding_global &le; 0.5<br/>gini = 0.022<br/>samples = 91<br/>value = [90, 1]<br/>class = 0>, fillcolor="#e58139fc"] ;
68 -> 69 ;
70 [label=<gini = 0.0<br/>samples = 63<br/>value = [63, 0]<br/>class = 0>, fillcolor="#e58139ff"] ;
69 -> 70 ;
71 [label=<gini = 0.069<br/>samples = 28<br/>value = [27, 1]<br/>class = 0>, fillcolor="#e58139f6"] ;
69 -> 71 ;
72 [label=<gini = 0.136<br/>samples = 41<br/>value = [38, 3]<br/>class = 0>, fillcolor="#e58139eb"] ;
68 -> 72 ;
73 [label=<typicalLearningTime &le; 405.5<br/>gini = 0.136<br/>samples = 68<br/>value = [63, 5]<br/>class = 0>, fillcolor="#e58139eb"] ;
67 -> 73 ;
74 [label=<gini = 0.219<br/>samples = 40<br/>value = [35, 5]<br/>class = 0>, fillcolor="#e58139db"] ;
73 -> 74 ;
75 [label=<gini = 0.0<br/>samples = 28<br/>value = [28, 0]<br/>class = 0>, fillcolor="#e58139ff"] ;
73 -> 75 ;
76 [label=<Difficulty.MEDIUM &le; 0.5<br/>gini = 0.189<br/>samples = 85<br/>value = [76, 9]<br/>class = 0>, fillcolor="#e58139e1"] ;
64 -> 76 ;
77 [label=<gini = 0.229<br/>samples = 53<br/>value = [46, 7]<br/>class = 0>, fillcolor="#e58139d8"] ;
76 -> 77 ;
78 [label=<gini = 0.117<br/>samples = 32<br/>value = [30, 2]<br/>class = 0>, fillcolor="#e58139ee"] ;
76 -> 78 ;
79 [label=<Difficulty.MEDIUM &le; 0.5<br/>gini = 0.332<br/>samples = 76<br/>value = [60, 16]<br/>class = 0>, fillcolor="#e58139bb"] ;
63 -> 79 ;
80 [label=<gini = 0.169<br/>samples = 43<br/>value = [39, 4]<br/>class = 0>, fillcolor="#e58139e5"] ;
79 -> 80 ;
81 [label=<gini = 0.463<br/>samples = 33<br/>value = [21, 12]<br/>class = 0>, fillcolor="#e581396d"] ;
79 -> 81 ;
82 [label=<MoreThanOneConcept &le; 0.5<br/>gini = 0.106<br/>samples = 375<br/>value = [354, 21]<br/>class = 0>, fillcolor="#e58139f0"] ;
62 -> 82 ;
83 [label=<Representation_verbal &le; 0.5<br/>gini = 0.085<br/>samples = 269<br/>value = [257, 12]<br/>class = 0>, fillcolor="#e58139f3"] ;
82 -> 83 ;
84 [label=<typicalLearningTime &le; 2685.5<br/>gini = 0.104<br/>samples = 219<br/>value = [207, 12]<br/>class = 0>, fillcolor="#e58139f0"] ;
83 -> 84 ;
85 [label=<typicalLearningTime &le; 2003.0<br/>gini = 0.133<br/>samples = 153<br/>value = [142, 11]<br/>class = 0>, fillcolor="#e58139eb"] ;
84 -> 85 ;
86 [label=<Perception_intuitive &le; 0.5<br/>gini = 0.09<br/>samples = 106<br/>value = [101, 5]<br/>class = 0>, fillcolor="#e58139f2"] ;
85 -> 86 ;
87 [label=<gini = 0.165<br/>samples = 44<br/>value = [40, 4]<br/>class = 0>, fillcolor="#e58139e6"] ;
86 -> 87 ;
88 [label=<typicalLearningTime &le; 1313.0<br/>gini = 0.032<br/>samples = 62<br/>value = [61, 1]<br/>class = 0>, fillcolor="#e58139fb"] ;
86 -> 88 ;
89 [label=<gini = 0.0<br/>samples = 32<br/>value = [32, 0]<br/>class = 0>, fillcolor="#e58139ff"] ;
88 -> 89 ;
90 [label=<gini = 0.064<br/>samples = 30<br/>value = [29, 1]<br/>class = 0>, fillcolor="#e58139f6"] ;
88 -> 90 ;
91 [label=<gini = 0.223<br/>samples = 47<br/>value = [41, 6]<br/>class = 0>, fillcolor="#e58139da"] ;
85 -> 91 ;
92 [label=<typicalLearningTime &le; 3754.0<br/>gini = 0.03<br/>samples = 66<br/>value = [65, 1]<br/>class = 0>, fillcolor="#e58139fb"] ;
84 -> 92 ;
93 [label=<gini = 0.0<br/>samples = 36<br/>value = [36, 0]<br/>class = 0>, fillcolor="#e58139ff"] ;
92 -> 93 ;
94 [label=<gini = 0.064<br/>samples = 30<br/>value = [29, 1]<br/>class = 0>, fillcolor="#e58139f6"] ;
92 -> 94 ;
95 [label=<gini = 0.0<br/>samples = 50<br/>value = [50, 0]<br/>class = 0>, fillcolor="#e58139ff"] ;
83 -> 95 ;
96 [label=<Perception_intuitive &le; 0.5<br/>gini = 0.155<br/>samples = 106<br/>value = [97, 9]<br/>class = 0>, fillcolor="#e58139e7"] ;
82 -> 96 ;
97 [label=<Understanding_global &le; 0.5<br/>gini = 0.095<br/>samples = 60<br/>value = [57, 3]<br/>class = 0>, fillcolor="#e58139f2"] ;
96 -> 97 ;
98 [label=<gini = 0.133<br/>samples = 28<br/>value = [26, 2]<br/>class = 0>, fillcolor="#e58139eb"] ;
97 -> 98 ;
99 [label=<gini = 0.061<br/>samples = 32<br/>value = [31, 1]<br/>class = 0>, fillcolor="#e58139f7"] ;
97 -> 99 ;
100 [label=<gini = 0.227<br/>samples = 46<br/>value = [40, 6]<br/>class = 0>, fillcolor="#e58139d9"] ;
96 -> 100 ;
101 [label=<gini = 0.36<br/>samples = 34<br/>value = [26, 8]<br/>class = 0>, fillcolor="#e58139b1"] ;
61 -> 101 ;
102 [label=<ICFA01 &le; 0.5<br/>gini = 0.206<br/>samples = 2381<br/>value = [2103, 278]<br/>class = 0>, fillcolor="#e58139dd"] ;
0 -> 102 [labeldistance=2.5, labelangle=-45, headlabel="False"] ;
103 [label=<typicalLearningTime &le; 2377.5<br/>gini = 0.113<br/>samples = 799<br/>value = [751, 48]<br/>class = 0>, fillcolor="#e58139ef"] ;
102 -> 103 ;
104 [label=<typicalLearningTime &le; 2115.5<br/>gini = 0.131<br/>samples = 640<br/>value = [595, 45]<br/>class = 0>, fillcolor="#e58139ec"] ;
103 -> 104 ;
105 [label=<Format.APPLICATION_PDF &le; 0.5<br/>gini = 0.121<br/>samples = 604<br/>value = [565, 39]<br/>class = 0>, fillcolor="#e58139ed"] ;
104 -> 105 ;
106 [label=<Perception_intuitive &le; 0.5<br/>gini = 0.162<br/>samples = 281<br/>value = [256, 25]<br/>class = 0>, fillcolor="#e58139e6"] ;
105 -> 106 ;
107 [label=<Representation_visual &le; 0.5<br/>gini = 0.108<br/>samples = 140<br/>value = [132, 8]<br/>class = 0>, fillcolor="#e58139f0"] ;
106 -> 107 ;
108 [label=<Difficulty.MEDIUM &le; 0.5<br/>gini = 0.145<br/>samples = 102<br/>value = [94, 8]<br/>class = 0>, fillcolor="#e58139e9"] ;
107 -> 108 ;
109 [label=<Representation_verbal &le; 0.5<br/>gini = 0.094<br/>samples = 61<br/>value = [58, 3]<br/>class = 0>, fillcolor="#e58139f2"] ;
108 -> 109 ;
110 [label=<gini = 0.0<br/>samples = 30<br/>value = [30, 0]<br/>class = 0>, fillcolor="#e58139ff"] ;
109 -> 110 ;
111 [label=<gini = 0.175<br/>samples = 31<br/>value = [28, 3]<br/>class = 0>, fillcolor="#e58139e4"] ;
109 -> 111 ;
112 [label=<gini = 0.214<br/>samples = 41<br/>value = [36, 5]<br/>class = 0>, fillcolor="#e58139dc"] ;
108 -> 112 ;
113 [label=<gini = 0.0<br/>samples = 38<br/>value = [38, 0]<br/>class = 0>, fillcolor="#e58139ff"] ;
107 -> 113 ;
114 [label=<typicalLearningTime &le; 1300.5<br/>gini = 0.212<br/>samples = 141<br/>value = [124, 17]<br/>class = 0>, fillcolor="#e58139dc"] ;
106 -> 114 ;
115 [label=<typicalLearningTime &le; 673.5<br/>gini = 0.259<br/>samples = 111<br/>value = [94, 17]<br/>class = 0>, fillcolor="#e58139d1"] ;
114 -> 115 ;
116 [label=<Difficulty.VERY_EASY &le; 0.5<br/>gini = 0.153<br/>samples = 72<br/>value = [66, 6]<br/>class = 0>, fillcolor="#e58139e8"] ;
115 -> 116 ;
117 [label=<gini = 0.064<br/>samples = 30<br/>value = [29, 1]<br/>class = 0>, fillcolor="#e58139f6"] ;
116 -> 117 ;
118 [label=<gini = 0.21<br/>samples = 42<br/>value = [37, 5]<br/>class = 0>, fillcolor="#e58139dd"] ;
116 -> 118 ;
119 [label=<gini = 0.405<br/>samples = 39<br/>value = [28, 11]<br/>class = 0>, fillcolor="#e581399b"] ;
115 -> 119 ;
120 [label=<gini = 0.0<br/>samples = 30<br/>value = [30, 0]<br/>class = 0>, fillcolor="#e58139ff"] ;
114 -> 120 ;
121 [label=<typicalLearningTime &le; 1157.5<br/>gini = 0.083<br/>samples = 323<br/>value = [309, 14]<br/>class = 0>, fillcolor="#e58139f3"] ;
105 -> 121 ;
122 [label=<Understanding_global &le; 0.5<br/>gini = 0.056<br/>samples = 210<br/>value = [204, 6]<br/>class = 0>, fillcolor="#e58139f8"] ;
121 -> 122 ;
123 [label=<Difficulty.MEDIUM &le; 0.5<br/>gini = 0.101<br/>samples = 112<br/>value = [106, 6]<br/>class = 0>, fillcolor="#e58139f1"] ;
122 -> 123 ;
124 [label=<typicalLearningTime &le; 489.0<br/>gini = 0.03<br/>samples = 65<br/>value = [64, 1]<br/>class = 0>, fillcolor="#e58139fb"] ;
123 -> 124 ;
125 [label=<gini = 0.064<br/>samples = 30<br/>value = [29, 1]<br/>class = 0>, fillcolor="#e58139f6"] ;
124 -> 125 ;
126 [label=<gini = 0.0<br/>samples = 35<br/>value = [35, 0]<br/>class = 0>, fillcolor="#e58139ff"] ;
124 -> 126 ;
127 [label=<gini = 0.19<br/>samples = 47<br/>value = [42, 5]<br/>class = 0>, fillcolor="#e58139e1"] ;
123 -> 127 ;
128 [label=<gini = 0.0<br/>samples = 98<br/>value = [98, 0]<br/>class = 0>, fillcolor="#e58139ff"] ;
122 -> 128 ;
129 [label=<typicalLearningTime &le; 1366.0<br/>gini = 0.132<br/>samples = 113<br/>value = [105, 8]<br/>class = 0>, fillcolor="#e58139ec"] ;
121 -> 129 ;
130 [label=<gini = 0.278<br/>samples = 30<br/>value = [25, 5]<br/>class = 0>, fillcolor="#e58139cc"] ;
129 -> 130 ;
131 [label=<Perception_intuitive &le; 0.5<br/>gini = 0.07<br/>samples = 83<br/>value = [80, 3]<br/>class = 0>, fillcolor="#e58139f5"] ;
129 -> 131 ;
132 [label=<gini = 0.0<br/>samples = 43<br/>value = [43, 0]<br/>class = 0>, fillcolor="#e58139ff"] ;
131 -> 132 ;
133 [label=<gini = 0.139<br/>samples = 40<br/>value = [37, 3]<br/>class = 0>, fillcolor="#e58139ea"] ;
131 -> 133 ;
134 [label=<gini = 0.278<br/>samples = 36<br/>value = [30, 6]<br/>class = 0>, fillcolor="#e58139cc"] ;
104 -> 134 ;
135 [label=<typicalLearningTime &le; 3774.0<br/>gini = 0.037<br/>samples = 159<br/>value = [156, 3]<br/>class = 0>, fillcolor="#e58139fa"] ;
103 -> 135 ;
136 [label=<gini = 0.0<br/>samples = 89<br/>value = [89, 0]<br/>class = 0>, fillcolor="#e58139ff"] ;
135 -> 136 ;
137 [label=<typicalLearningTime &le; 5002.0<br/>gini = 0.082<br/>samples = 70<br/>value = [67, 3]<br/>class = 0>, fillcolor="#e58139f4"] ;
135 -> 137 ;
138 [label=<gini = 0.133<br/>samples = 28<br/>value = [26, 2]<br/>class = 0>, fillcolor="#e58139eb"] ;
137 -> 138 ;
139 [label=<gini = 0.046<br/>samples = 42<br/>value = [41, 1]<br/>class = 0>, fillcolor="#e58139f9"] ;
137 -> 139 ;
140 [label=<typicalLearningTime &le; 175.5<br/>gini = 0.248<br/>samples = 1582<br/>value = [1352, 230]<br/>class = 0>, fillcolor="#e58139d4"] ;
102 -> 140 ;
141 [label=<Difficulty.MEDIUM &le; 0.5<br/>gini = 0.358<br/>samples = 77<br/>value = [59, 18]<br/>class = 0>, fillcolor="#e58139b1"] ;
140 -> 141 ;
142 [label=<gini = 0.282<br/>samples = 47<br/>value = [39, 8]<br/>class = 0>, fillcolor="#e58139cb"] ;
141 -> 142 ;
143 [label=<gini = 0.444<br/>samples = 30<br/>value = [20, 10]<br/>class = 0>, fillcolor="#e581397f"] ;
141 -> 143 ;
144 [label=<Format.VIDEO_MP4 &le; 0.5<br/>gini = 0.242<br/>samples = 1505<br/>value = [1293, 212]<br/>class = 0>, fillcolor="#e58139d5"] ;
140 -> 144 ;
145 [label=<Difficulty.DIFFICULT &le; 0.5<br/>gini = 0.219<br/>samples = 865<br/>value = [757, 108]<br/>class = 0>, fillcolor="#e58139db"] ;
144 -> 145 ;
146 [label=<Processing_reflective &le; 0.5<br/>gini = 0.194<br/>samples = 663<br/>value = [591, 72]<br/>class = 0>, fillcolor="#e58139e0"] ;
145 -> 146 ;
147 [label=<gini = 0.315<br/>samples = 51<br/>value = [41, 10]<br/>class = 0>, fillcolor="#e58139c1"] ;
146 -> 147 ;
148 [label=<Understanding_global &le; 0.5<br/>gini = 0.182<br/>samples = 612<br/>value = [550, 62]<br/>class = 0>, fillcolor="#e58139e2"] ;
146 -> 148 ;
149 [label=<Representation_verbal &le; 0.5<br/>gini = 0.221<br/>samples = 261<br/>value = [228, 33]<br/>class = 0>, fillcolor="#e58139da"] ;
148 -> 149 ;
150 [label=<typicalLearningTime &le; 977.0<br/>gini = 0.27<br/>samples = 137<br/>value = [115, 22]<br/>class = 0>, fillcolor="#e58139ce"] ;
149 -> 150 ;
151 [label=<gini = 0.194<br/>samples = 55<br/>value = [49, 6]<br/>class = 0>, fillcolor="#e58139e0"] ;
150 -> 151 ;
152 [label=<ICRC04 &le; 0.5<br/>gini = 0.314<br/>samples = 82<br/>value = [66, 16]<br/>class = 0>, fillcolor="#e58139c1"] ;
150 -> 152 ;
153 [label=<gini = 0.172<br/>samples = 42<br/>value = [38, 4]<br/>class = 0>, fillcolor="#e58139e4"] ;
152 -> 153 ;
154 [label=<gini = 0.42<br/>samples = 40<br/>value = [28, 12]<br/>class = 0>, fillcolor="#e5813992"] ;
152 -> 154 ;
155 [label=<typicalLearningTime &le; 1033.0<br/>gini = 0.162<br/>samples = 124<br/>value = [113, 11]<br/>class = 0>, fillcolor="#e58139e6"] ;
149 -> 155 ;
156 [label=<ICRC05 &le; 0.5<br/>gini = 0.23<br/>samples = 68<br/>value = [59, 9]<br/>class = 0>, fillcolor="#e58139d8"] ;
155 -> 156 ;
157 [label=<gini = 0.272<br/>samples = 37<br/>value = [31, 6]<br/>class = 0>, fillcolor="#e58139ce"] ;
156 -> 157 ;
158 [label=<gini = 0.175<br/>samples = 31<br/>value = [28, 3]<br/>class = 0>, fillcolor="#e58139e4"] ;
156 -> 158 ;
159 [label=<gini = 0.069<br/>samples = 56<br/>value = [54, 2]<br/>class = 0>, fillcolor="#e58139f6"] ;
155 -> 159 ;
160 [label=<Representation_visual &le; 0.5<br/>gini = 0.152<br/>samples = 351<br/>value = [322, 29]<br/>class = 0>, fillcolor="#e58139e8"] ;
148 -> 160 ;
161 [label=<Perception_intuitive &le; 0.5<br/>gini = 0.058<br/>samples = 133<br/>value = [129, 4]<br/>class = 0>, fillcolor="#e58139f7"] ;
160 -> 161 ;
162 [label=<gini = 0.0<br/>samples = 47<br/>value = [47, 0]<br/>class = 0>, fillcolor="#e58139ff"] ;
161 -> 162 ;
163 [label=<typicalLearningTime &le; 967.5<br/>gini = 0.089<br/>samples = 86<br/>value = [82, 4]<br/>class = 0>, fillcolor="#e58139f3"] ;
161 -> 163 ;
164 [label=<gini = 0.038<br/>samples = 52<br/>value = [51, 1]<br/>class = 0>, fillcolor="#e58139fa"] ;
163 -> 164 ;
165 [label=<gini = 0.161<br/>samples = 34<br/>value = [31, 3]<br/>class = 0>, fillcolor="#e58139e6"] ;
163 -> 165 ;
166 [label=<typicalLearningTime &le; 3386.0<br/>gini = 0.203<br/>samples = 218<br/>value = [193, 25]<br/>class = 0>, fillcolor="#e58139de"] ;
160 -> 166 ;
167 [label=<typicalLearningTime &le; 2224.5<br/>gini = 0.24<br/>samples = 172<br/>value = [148, 24]<br/>class = 0>, fillcolor="#e58139d6"] ;
166 -> 167 ;
168 [label=<typicalLearningTime &le; 1143.5<br/>gini = 0.211<br/>samples = 142<br/>value = [125, 17]<br/>class = 0>, fillcolor="#e58139dc"] ;
167 -> 168 ;
169 [label=<typicalLearningTime &le; 391.5<br/>gini = 0.247<br/>samples = 97<br/>value = [83, 14]<br/>class = 0>, fillcolor="#e58139d4"] ;
168 -> 169 ;
170 [label=<gini = 0.136<br/>samples = 41<br/>value = [38, 3]<br/>class = 0>, fillcolor="#e58139eb"] ;
169 -> 170 ;
171 [label=<sensorial_intuitivo &le; 0.0<br/>gini = 0.316<br/>samples = 56<br/>value = [45, 11]<br/>class = 0>, fillcolor="#e58139c1"] ;
169 -> 171 ;
172 [label=<gini = 0.245<br/>samples = 28<br/>value = [24, 4]<br/>class = 0>, fillcolor="#e58139d4"] ;
171 -> 172 ;
173 [label=<gini = 0.375<br/>samples = 28<br/>value = [21, 7]<br/>class = 0>, fillcolor="#e58139aa"] ;
171 -> 173 ;
174 [label=<gini = 0.124<br/>samples = 45<br/>value = [42, 3]<br/>class = 0>, fillcolor="#e58139ed"] ;
168 -> 174 ;
175 [label=<gini = 0.358<br/>samples = 30<br/>value = [23, 7]<br/>class = 0>, fillcolor="#e58139b1"] ;
167 -> 175 ;
176 [label=<gini = 0.043<br/>samples = 46<br/>value = [45, 1]<br/>class = 0>, fillcolor="#e58139f9"] ;
166 -> 176 ;
177 [label=<typicalLearningTime &le; 1217.5<br/>gini = 0.293<br/>samples = 202<br/>value = [166, 36]<br/>class = 0>, fillcolor="#e58139c8"] ;
145 -> 177 ;
178 [label=<ICHCC05 &le; 0.5<br/>gini = 0.213<br/>samples = 107<br/>value = [94, 13]<br/>class = 0>, fillcolor="#e58139dc"] ;
177 -> 178 ;
179 [label=<gini = 0.282<br/>samples = 53<br/>value = [44, 9]<br/>class = 0>, fillcolor="#e58139cb"] ;
178 -> 179 ;
180 [label=<gini = 0.137<br/>samples = 54<br/>value = [50, 4]<br/>class = 0>, fillcolor="#e58139eb"] ;
178 -> 180 ;
181 [label=<typicalLearningTime &le; 1596.5<br/>gini = 0.367<br/>samples = 95<br/>value = [72, 23]<br/>class = 0>, fillcolor="#e58139ae"] ;
177 -> 181 ;
182 [label=<gini = 0.493<br/>samples = 34<br/>value = [19, 15]<br/>class = 0>, fillcolor="#e5813936"] ;
181 -> 182 ;
183 [label=<sensorial_intuitivo &le; 0.0<br/>gini = 0.228<br/>samples = 61<br/>value = [53, 8]<br/>class = 0>, fillcolor="#e58139d9"] ;
181 -> 183 ;
184 [label=<gini = 0.175<br/>samples = 31<br/>value = [28, 3]<br/>class = 0>, fillcolor="#e58139e4"] ;
183 -> 184 ;
185 [label=<gini = 0.278<br/>samples = 30<br/>value = [25, 5]<br/>class = 0>, fillcolor="#e58139cc"] ;
183 -> 185 ;
186 [label=<Perception_intuitive &le; 0.5<br/>gini = 0.272<br/>samples = 640<br/>value = [536, 104]<br/>class = 0>, fillcolor="#e58139ce"] ;
144 -> 186 ;
187 [label=<typicalLearningTime &le; 3856.0<br/>gini = 0.24<br/>samples = 373<br/>value = [321, 52]<br/>class = 0>, fillcolor="#e58139d6"] ;
186 -> 187 ;
188 [label=<typicalLearningTime &le; 509.5<br/>gini = 0.217<br/>samples = 323<br/>value = [283, 40]<br/>class = 0>, fillcolor="#e58139db"] ;
187 -> 188 ;
189 [label=<typicalLearningTime &le; 337.0<br/>gini = 0.131<br/>samples = 71<br/>value = [66, 5]<br/>class = 0>, fillcolor="#e58139ec"] ;
188 -> 189 ;
190 [label=<gini = 0.208<br/>samples = 34<br/>value = [30, 4]<br/>class = 0>, fillcolor="#e58139dd"] ;
189 -> 190 ;
191 [label=<gini = 0.053<br/>samples = 37<br/>value = [36, 1]<br/>class = 0>, fillcolor="#e58139f8"] ;
189 -> 191 ;
192 [label=<typicalLearningTime &le; 749.0<br/>gini = 0.239<br/>samples = 252<br/>value = [217, 35]<br/>class = 0>, fillcolor="#e58139d6"] ;
188 -> 192 ;
193 [label=<gini = 0.394<br/>samples = 37<br/>value = [27, 10]<br/>class = 0>, fillcolor="#e58139a1"] ;
192 -> 193 ;
194 [label=<MoreThanOneConcept &le; 0.5<br/>gini = 0.206<br/>samples = 215<br/>value = [190, 25]<br/>class = 0>, fillcolor="#e58139dd"] ;
192 -> 194 ;
195 [label=<Understanding_sequential &le; 0.5<br/>gini = 0.182<br/>samples = 178<br/>value = [160, 18]<br/>class = 0>, fillcolor="#e58139e2"] ;
194 -> 195 ;
196 [label=<typicalLearningTime &le; 1436.0<br/>gini = 0.144<br/>samples = 141<br/>value = [130, 11]<br/>class = 0>, fillcolor="#e58139e9"] ;
195 -> 196 ;
197 [label=<gini = 0.044<br/>samples = 44<br/>value = [43, 1]<br/>class = 0>, fillcolor="#e58139f9"] ;
196 -> 197 ;
198 [label=<ICRC05 &le; 0.5<br/>gini = 0.185<br/>samples = 97<br/>value = [87, 10]<br/>class = 0>, fillcolor="#e58139e2"] ;
196 -> 198 ;
199 [label=<gini = 0.083<br/>samples = 46<br/>value = [44, 2]<br/>class = 0>, fillcolor="#e58139f3"] ;
198 -> 199 ;
200 [label=<gini = 0.265<br/>samples = 51<br/>value = [43, 8]<br/>class = 0>, fillcolor="#e58139d0"] ;
198 -> 200 ;
201 [label=<gini = 0.307<br/>samples = 37<br/>value = [30, 7]<br/>class = 0>, fillcolor="#e58139c4"] ;
195 -> 201 ;
202 [label=<gini = 0.307<br/>samples = 37<br/>value = [30, 7]<br/>class = 0>, fillcolor="#e58139c4"] ;
194 -> 202 ;
203 [label=<gini = 0.365<br/>samples = 50<br/>value = [38, 12]<br/>class = 0>, fillcolor="#e58139ae"] ;
187 -> 203 ;
204 [label=<Representation_visual &le; 0.5<br/>gini = 0.314<br/>samples = 267<br/>value = [215, 52]<br/>class = 0>, fillcolor="#e58139c1"] ;
186 -> 204 ;
205 [label=<typicalLearningTime &le; 951.0<br/>gini = 0.381<br/>samples = 117<br/>value = [87, 30]<br/>class = 0>, fillcolor="#e58139a7"] ;
204 -> 205 ;
206 [label=<typicalLearningTime &le; 430.0<br/>gini = 0.432<br/>samples = 57<br/>value = [39, 18]<br/>class = 0>, fillcolor="#e5813989"] ;
205 -> 206 ;
207 [label=<gini = 0.408<br/>samples = 28<br/>value = [20, 8]<br/>class = 0>, fillcolor="#e5813999"] ;
206 -> 207 ;
208 [label=<gini = 0.452<br/>samples = 29<br/>value = [19, 10]<br/>class = 0>, fillcolor="#e5813979"] ;
206 -> 208 ;
209 [label=<Understanding_global &le; 0.5<br/>gini = 0.32<br/>samples = 60<br/>value = [48, 12]<br/>class = 0>, fillcolor="#e58139bf"] ;
205 -> 209 ;
210 [label=<gini = 0.4<br/>samples = 29<br/>value = [21, 8]<br/>class = 0>, fillcolor="#e581399e"] ;
209 -> 210 ;
211 [label=<gini = 0.225<br/>samples = 31<br/>value = [27, 4]<br/>class = 0>, fillcolor="#e58139d9"] ;
209 -> 211 ;
212 [label=<ICHCC06 &le; 0.5<br/>gini = 0.25<br/>samples = 150<br/>value = [128, 22]<br/>class = 0>, fillcolor="#e58139d3"] ;
204 -> 212 ;
213 [label=<typicalLearningTime &le; 1261.5<br/>gini = 0.198<br/>samples = 81<br/>value = [72, 9]<br/>class = 0>, fillcolor="#e58139df"] ;
212 -> 213 ;
214 [label=<gini = 0.124<br/>samples = 45<br/>value = [42, 3]<br/>class = 0>, fillcolor="#e58139ed"] ;
213 -> 214 ;
215 [label=<gini = 0.278<br/>samples = 36<br/>value = [30, 6]<br/>class = 0>, fillcolor="#e58139cc"] ;
213 -> 215 ;
216 [label=<Difficulty.VERY_EASY &le; 0.5<br/>gini = 0.306<br/>samples = 69<br/>value = [56, 13]<br/>class = 0>, fillcolor="#e58139c4"] ;
212 -> 216 ;
217 [label=<gini = 0.219<br/>samples = 40<br/>value = [35, 5]<br/>class = 0>, fillcolor="#e58139db"] ;
216 -> 217 ;
218 [label=<gini = 0.4<br/>samples = 29<br/>value = [21, 8]<br/>class = 0>, fillcolor="#e581399e"] ;
216 -> 218 ;
}