digraph Tree {
node [shape=box, style="filled, rounded", color="black", fontname=helvetica] ;
edge [fontname=helvetica] ;
0 [label=<Difficulty.DIFFICULT &le; 0.5<br/>gini = 0.284<br/>samples = 198<br/>value = [164, 34]<br/>class = 0>, fillcolor="#e58139ca"] ;
1 [label=<LearningResourceType.FIGURE &le; 0.5<br/>gini = 0.236<br/>samples = 161<br/>value = [139, 22]<br/>class = 0>, fillcolor="#e58139d7"] ;
0 -> 1 [labeldistance=2.5, labelangle=45, headlabel="True"] ;
2 [label=<MoreThanOneConcept &le; 0.5<br/>gini = 0.296<br/>samples = 94<br/>value = [77, 17]<br/>class = 0>, fillcolor="#e58139c7"] ;
1 -> 2 ;
3 [label=<Difficulty.MEDIUM &le; 0.5<br/>gini = 0.342<br/>samples = 73<br/>value = [57, 16]<br/>class = 0>, fillcolor="#e58139b7"] ;
2 -> 3 ;
4 [label=<Perception_sensory &le; 0.5<br/>gini = 0.437<br/>samples = 31<br/>value = [21, 10]<br/>class = 0>, fillcolor="#e5813986"] ;
3 -> 4 ;
5 [label=<InteractivityLevel.VERY_LOW &le; 0.5<br/>gini = 0.488<br/>samples = 19<br/>value = [11, 8]<br/>class = 0>, fillcolor="#e5813946"] ;
4 -> 5 ;
6 [label=<gini = 0.0<br/>samples = 2<br/>value = [2, 0]<br/>class = 0>, fillcolor="#e58139ff"] ;
5 -> 6 ;
7 [label=<Format.IMAGE_PNG &le; 0.5<br/>gini = 0.498<br/>samples = 17<br/>value = [9, 8]<br/>class = 0>, fillcolor="#e581391c"] ;
5 -> 7 ;
8 [label=<Representation_verbal &le; 0.5<br/>gini = 0.5<br/>samples = 16<br/>value = [8, 8]<br/>class = 0>, fillcolor="#e5813900"] ;
7 -> 8 ;
9 [label=<Format.APPLICATION_PDF &le; 0.5<br/>gini = 0.48<br/>samples = 10<br/>value = [4, 6]<br/>class = 1>, fillcolor="#399de555"] ;
8 -> 9 ;
10 [label=<Perception_intuitive &le; 0.5<br/>gini = 0.5<br/>samples = 8<br/>value = [4, 4]<br/>class = 0>, fillcolor="#e5813900"] ;
9 -> 10 ;
11 [label=<LearningResourceType.NARRATIVE_TEXT &le; 0.5<br/>gini = 0.49<br/>samples = 7<br/>value = [3, 4]<br/>class = 1>, fillcolor="#399de540"] ;
10 -> 11 ;
12 [label=<Representation_visual &le; 0.5<br/>gini = 0.375<br/>samples = 4<br/>value = [1, 3]<br/>class = 1>, fillcolor="#399de5aa"] ;
11 -> 12 ;
13 [label=<gini = 0.444<br/>samples = 3<br/>value = [1, 2]<br/>class = 1>, fillcolor="#399de57f"] ;
12 -> 13 ;
14 [label=<gini = 0.0<br/>samples = 1<br/>value = [0, 1]<br/>class = 1>, fillcolor="#399de5ff"] ;
12 -> 14 ;
15 [label=<LearningResourceType.PROBLEM_STATEMENT &le; 0.5<br/>gini = 0.444<br/>samples = 3<br/>value = [2, 1]<br/>class = 0>, fillcolor="#e581397f"] ;
11 -> 15 ;
16 [label=<gini = 0.0<br/>samples = 1<br/>value = [1, 0]<br/>class = 0>, fillcolor="#e58139ff"] ;
15 -> 16 ;
17 [label=<gini = 0.5<br/>samples = 2<br/>value = [1, 1]<br/>class = 0>, fillcolor="#e5813900"] ;
15 -> 17 ;
18 [label=<gini = 0.0<br/>samples = 1<br/>value = [1, 0]<br/>class = 0>, fillcolor="#e58139ff"] ;
10 -> 18 ;
19 [label=<gini = 0.0<br/>samples = 2<br/>value = [0, 2]<br/>class = 1>, fillcolor="#399de5ff"] ;
9 -> 19 ;
20 [label=<LearningResourceType.SLIDE &le; 0.5<br/>gini = 0.444<br/>samples = 6<br/>value = [4, 2]<br/>class = 0>, fillcolor="#e581397f"] ;
8 -> 20 ;
21 [label=<Difficulty.VERY_DIFFICULT &le; 0.5<br/>gini = 0.5<br/>samples = 4<br/>value = [2, 2]<br/>class = 0>, fillcolor="#e5813900"] ;
20 -> 21 ;
22 [label=<Format.APPLICATION_PDF &le; 0.5<br/>gini = 0.444<br/>samples = 3<br/>value = [1, 2]<br/>class = 1>, fillcolor="#399de57f"] ;
21 -> 22 ;
23 [label=<gini = 0.0<br/>samples = 1<br/>value = [0, 1]<br/>class = 1>, fillcolor="#399de5ff"] ;
22 -> 23 ;
24 [label=<gini = 0.5<br/>samples = 2<br/>value = [1, 1]<br/>class = 0>, fillcolor="#e5813900"] ;
22 -> 24 ;
25 [label=<gini = 0.0<br/>samples = 1<br/>value = [1, 0]<br/>class = 0>, fillcolor="#e58139ff"] ;
21 -> 25 ;
26 [label=<gini = 0.0<br/>samples = 2<br/>value = [2, 0]<br/>class = 0>, fillcolor="#e58139ff"] ;
20 -> 26 ;
27 [label=<gini = 0.0<br/>samples = 1<br/>value = [1, 0]<br/>class = 0>, fillcolor="#e58139ff"] ;
7 -> 27 ;
28 [label=<LearningResourceType.GRAPH &le; 0.5<br/>gini = 0.278<br/>samples = 12<br/>value = [10, 2]<br/>class = 0>, fillcolor="#e58139cc"] ;
4 -> 28 ;
29 [label=<InteractivityLevel.VERY_LOW &le; 0.5<br/>gini = 0.165<br/>samples = 11<br/>value = [10, 1]<br/>class = 0>, fillcolor="#e58139e6"] ;
28 -> 29 ;
30 [label=<LearningResourceType.TABLE &le; 0.5<br/>gini = 0.444<br/>samples = 3<br/>value = [2, 1]<br/>class = 0>, fillcolor="#e581397f"] ;
29 -> 30 ;
31 [label=<gini = 0.0<br/>samples = 2<br/>value = [2, 0]<br/>class = 0>, fillcolor="#e58139ff"] ;
30 -> 31 ;
32 [label=<gini = 0.0<br/>samples = 1<br/>value = [0, 1]<br/>class = 1>, fillcolor="#399de5ff"] ;
30 -> 32 ;
33 [label=<gini = 0.0<br/>samples = 8<br/>value = [8, 0]<br/>class = 0>, fillcolor="#e58139ff"] ;
29 -> 33 ;
34 [label=<gini = 0.0<br/>samples = 1<br/>value = [0, 1]<br/>class = 1>, fillcolor="#399de5ff"] ;
28 -> 34 ;
35 [label=<Representation_visual &le; 0.5<br/>gini = 0.245<br/>samples = 42<br/>value = [36, 6]<br/>class = 0>, fillcolor="#e58139d4"] ;
3 -> 35 ;
36 [label=<Representation_verbal &le; 0.5<br/>gini = 0.298<br/>samples = 33<br/>value = [27, 6]<br/>class = 0>, fillcolor="#e58139c6"] ;
35 -> 36 ;
37 [label=<Processing_reflective &le; 0.5<br/>gini = 0.365<br/>samples = 25<br/>value = [19, 6]<br/>class = 0>, fillcolor="#e58139ae"] ;
36 -> 37 ;
38 [label=<gini = 0.0<br/>samples = 4<br/>value = [4, 0]<br/>class = 0>, fillcolor="#e58139ff"] ;
37 -> 38 ;
39 [label=<Perception_intuitive &le; 0.5<br/>gini = 0.408<br/>samples = 21<br/>value = [15, 6]<br/>class = 0>, fillcolor="#e5813999"] ;
37 -> 39 ;
40 [label=<Format.APPLICATION_PDF &le; 0.5<br/>gini = 0.486<br/>samples = 12<br/>value = [7, 5]<br/>class = 0>, fillcolor="#e5813949"] ;
39 -> 40 ;
41 [label=<LearningResourceType.NARRATIVE_TEXT &le; 0.5<br/>gini = 0.408<br/>samples = 7<br/>value = [5, 2]<br/>class = 0>, fillcolor="#e5813999"] ;
40 -> 41 ;
42 [label=<gini = 0.48<br/>samples = 5<br/>value = [3, 2]<br/>class = 0>, fillcolor="#e5813955"] ;
41 -> 42 ;
43 [label=<gini = 0.0<br/>samples = 2<br/>value = [2, 0]<br/>class = 0>, fillcolor="#e58139ff"] ;
41 -> 43 ;
44 [label=<Understanding_sequential &le; 0.5<br/>gini = 0.48<br/>samples = 5<br/>value = [2, 3]<br/>class = 1>, fillcolor="#399de555"] ;
40 -> 44 ;
45 [label=<Understanding_global &le; 0.5<br/>gini = 0.375<br/>samples = 4<br/>value = [1, 3]<br/>class = 1>, fillcolor="#399de5aa"] ;
44 -> 45 ;
46 [label=<gini = 0.0<br/>samples = 2<br/>value = [0, 2]<br/>class = 1>, fillcolor="#399de5ff"] ;
45 -> 46 ;
47 [label=<gini = 0.5<br/>samples = 2<br/>value = [1, 1]<br/>class = 0>, fillcolor="#e5813900"] ;
45 -> 47 ;
48 [label=<gini = 0.0<br/>samples = 1<br/>value = [1, 0]<br/>class = 0>, fillcolor="#e58139ff"] ;
44 -> 48 ;
49 [label=<LearningResourceType.SLIDE &le; 0.5<br/>gini = 0.198<br/>samples = 9<br/>value = [8, 1]<br/>class = 0>, fillcolor="#e58139df"] ;
39 -> 49 ;
50 [label=<gini = 0.0<br/>samples = 5<br/>value = [5, 0]<br/>class = 0>, fillcolor="#e58139ff"] ;
49 -> 50 ;
51 [label=<gini = 0.375<br/>samples = 4<br/>value = [3, 1]<br/>class = 0>, fillcolor="#e58139aa"] ;
49 -> 51 ;
52 [label=<gini = 0.0<br/>samples = 8<br/>value = [8, 0]<br/>class = 0>, fillcolor="#e58139ff"] ;
36 -> 52 ;
53 [label=<gini = 0.0<br/>samples = 9<br/>value = [9, 0]<br/>class = 0>, fillcolor="#e58139ff"] ;
35 -> 53 ;
54 [label=<Representation_visual &le; 0.5<br/>gini = 0.091<br/>samples = 21<br/>value = [20, 1]<br/>class = 0>, fillcolor="#e58139f2"] ;
2 -> 54 ;
55 [label=<gini = 0.0<br/>samples = 15<br/>value = [15, 0]<br/>class = 0>, fillcolor="#e58139ff"] ;
54 -> 55 ;
56 [label=<Difficulty.VERY_EASY &le; 0.5<br/>gini = 0.278<br/>samples = 6<br/>value = [5, 1]<br/>class = 0>, fillcolor="#e58139cc"] ;
54 -> 56 ;
57 [label=<LearningResourceType.SLIDE &le; 0.5<br/>gini = 0.444<br/>samples = 3<br/>value = [2, 1]<br/>class = 0>, fillcolor="#e581397f"] ;
56 -> 57 ;
58 [label=<gini = 0.0<br/>samples = 1<br/>value = [1, 0]<br/>class = 0>, fillcolor="#e58139ff"] ;
57 -> 58 ;
59 [label=<LearningResourceType.GRAPH &le; 0.5<br/>gini = 0.5<br/>samples = 2<br/>value = [1, 1]<br/>class = 0>, fillcolor="#e5813900"] ;
57 -> 59 ;
60 [label=<gini = 0.0<br/>samples = 1<br/>value = [0, 1]<br/>class = 1>, fillcolor="#399de5ff"] ;
59 -> 60 ;
61 [label=<gini = 0.0<br/>samples = 1<br/>value = [1, 0]<br/>class = 0>, fillcolor="#e58139ff"] ;
59 -> 61 ;
62 [label=<gini = 0.0<br/>samples = 3<br/>value = [3, 0]<br/>class = 0>, fillcolor="#e58139ff"] ;
56 -> 62 ;
63 [label=<Understanding_sequential &le; 0.5<br/>gini = 0.138<br/>samples = 67<br/>value = [62, 5]<br/>class = 0>, fillcolor="#e58139ea"] ;
1 -> 63 ;
64 [label=<LearningResourceType.GRAPH &le; 0.5<br/>gini = 0.114<br/>samples = 66<br/>value = [62, 4]<br/>class = 0>, fillcolor="#e58139ef"] ;
63 -> 64 ;
65 [label=<Format.VIDEO_MP4 &le; 0.5<br/>gini = 0.091<br/>samples = 63<br/>value = [60, 3]<br/>class = 0>, fillcolor="#e58139f2"] ;
64 -> 65 ;
66 [label=<gini = 0.0<br/>samples = 37<br/>value = [37, 0]<br/>class = 0>, fillcolor="#e58139ff"] ;
65 -> 66 ;
67 [label=<Understanding_global &le; 0.5<br/>gini = 0.204<br/>samples = 26<br/>value = [23, 3]<br/>class = 0>, fillcolor="#e58139de"] ;
65 -> 67 ;
68 [label=<gini = 0.0<br/>samples = 7<br/>value = [7, 0]<br/>class = 0>, fillcolor="#e58139ff"] ;
67 -> 68 ;
69 [label=<LearningResourceType.DIAGRAM &le; 0.5<br/>gini = 0.266<br/>samples = 19<br/>value = [16, 3]<br/>class = 0>, fillcolor="#e58139cf"] ;
67 -> 69 ;
70 [label=<Perception_intuitive &le; 0.5<br/>gini = 0.32<br/>samples = 15<br/>value = [12, 3]<br/>class = 0>, fillcolor="#e58139bf"] ;
69 -> 70 ;
71 [label=<gini = 0.0<br/>samples = 3<br/>value = [3, 0]<br/>class = 0>, fillcolor="#e58139ff"] ;
70 -> 71 ;
72 [label=<Difficulty.VERY_EASY &le; 0.5<br/>gini = 0.375<br/>samples = 12<br/>value = [9, 3]<br/>class = 0>, fillcolor="#e58139aa"] ;
70 -> 72 ;
73 [label=<MoreThanOneConcept &le; 0.5<br/>gini = 0.48<br/>samples = 5<br/>value = [3, 2]<br/>class = 0>, fillcolor="#e5813955"] ;
72 -> 73 ;
74 [label=<Representation_visual &le; 0.5<br/>gini = 0.5<br/>samples = 4<br/>value = [2, 2]<br/>class = 0>, fillcolor="#e5813900"] ;
73 -> 74 ;
75 [label=<gini = 0.5<br/>samples = 2<br/>value = [1, 1]<br/>class = 0>, fillcolor="#e5813900"] ;
74 -> 75 ;
76 [label=<gini = 0.5<br/>samples = 2<br/>value = [1, 1]<br/>class = 0>, fillcolor="#e5813900"] ;
74 -> 76 ;
77 [label=<gini = 0.0<br/>samples = 1<br/>value = [1, 0]<br/>class = 0>, fillcolor="#e58139ff"] ;
73 -> 77 ;
78 [label=<MoreThanOneConcept &le; 0.5<br/>gini = 0.245<br/>samples = 7<br/>value = [6, 1]<br/>class = 0>, fillcolor="#e58139d4"] ;
72 -> 78 ;
79 [label=<gini = 0.0<br/>samples = 6<br/>value = [6, 0]<br/>class = 0>, fillcolor="#e58139ff"] ;
78 -> 79 ;
80 [label=<gini = 0.0<br/>samples = 1<br/>value = [0, 1]<br/>class = 1>, fillcolor="#399de5ff"] ;
78 -> 80 ;
81 [label=<gini = 0.0<br/>samples = 4<br/>value = [4, 0]<br/>class = 0>, fillcolor="#e58139ff"] ;
69 -> 81 ;
82 [label=<Difficulty.MEDIUM &le; 0.5<br/>gini = 0.444<br/>samples = 3<br/>value = [2, 1]<br/>class = 0>, fillcolor="#e581397f"] ;
64 -> 82 ;
83 [label=<gini = 0.0<br/>samples = 1<br/>value = [1, 0]<br/>class = 0>, fillcolor="#e58139ff"] ;
82 -> 83 ;
84 [label=<Format.APPLICATION_PDF &le; 0.5<br/>gini = 0.5<br/>samples = 2<br/>value = [1, 1]<br/>class = 0>, fillcolor="#e5813900"] ;
82 -> 84 ;
85 [label=<gini = 0.0<br/>samples = 1<br/>value = [1, 0]<br/>class = 0>, fillcolor="#e58139ff"] ;
84 -> 85 ;
86 [label=<gini = 0.0<br/>samples = 1<br/>value = [0, 1]<br/>class = 1>, fillcolor="#399de5ff"] ;
84 -> 86 ;
87 [label=<gini = 0.0<br/>samples = 1<br/>value = [0, 1]<br/>class = 1>, fillcolor="#399de5ff"] ;
63 -> 87 ;
88 [label=<Perception_intuitive &le; 0.5<br/>gini = 0.438<br/>samples = 37<br/>value = [25, 12]<br/>class = 0>, fillcolor="#e5813985"] ;
0 -> 88 [labeldistance=2.5, labelangle=-45, headlabel="False"] ;
89 [label=<LearningResourceType.PROBLEM_STATEMENT &le; 0.5<br/>gini = 0.198<br/>samples = 18<br/>value = [16, 2]<br/>class = 0>, fillcolor="#e58139df"] ;
88 -> 89 ;
90 [label=<LearningResourceType.EXERCISE &le; 0.5<br/>gini = 0.117<br/>samples = 16<br/>value = [15, 1]<br/>class = 0>, fillcolor="#e58139ee"] ;
89 -> 90 ;
91 [label=<gini = 0.0<br/>samples = 12<br/>value = [12, 0]<br/>class = 0>, fillcolor="#e58139ff"] ;
90 -> 91 ;
92 [label=<Processing_reflective &le; 0.5<br/>gini = 0.375<br/>samples = 4<br/>value = [3, 1]<br/>class = 0>, fillcolor="#e58139aa"] ;
90 -> 92 ;
93 [label=<gini = 0.0<br/>samples = 2<br/>value = [2, 0]<br/>class = 0>, fillcolor="#e58139ff"] ;
92 -> 93 ;
94 [label=<Understanding_global &le; 0.5<br/>gini = 0.5<br/>samples = 2<br/>value = [1, 1]<br/>class = 0>, fillcolor="#e5813900"] ;
92 -> 94 ;
95 [label=<gini = 0.0<br/>samples = 1<br/>value = [0, 1]<br/>class = 1>, fillcolor="#399de5ff"] ;
94 -> 95 ;
96 [label=<gini = 0.0<br/>samples = 1<br/>value = [1, 0]<br/>class = 0>, fillcolor="#e58139ff"] ;
94 -> 96 ;
97 [label=<LearningResourceType.TABLE &le; 0.5<br/>gini = 0.5<br/>samples = 2<br/>value = [1, 1]<br/>class = 0>, fillcolor="#e5813900"] ;
89 -> 97 ;
98 [label=<gini = 0.0<br/>samples = 1<br/>value = [0, 1]<br/>class = 1>, fillcolor="#399de5ff"] ;
97 -> 98 ;
99 [label=<gini = 0.0<br/>samples = 1<br/>value = [1, 0]<br/>class = 0>, fillcolor="#e58139ff"] ;
97 -> 99 ;
100 [label=<LearningResourceType.SLIDE &le; 0.5<br/>gini = 0.499<br/>samples = 19<br/>value = [9, 10]<br/>class = 1>, fillcolor="#399de519"] ;
88 -> 100 ;
101 [label=<LearningResourceType.GRAPH &le; 0.5<br/>gini = 0.48<br/>samples = 15<br/>value = [9, 6]<br/>class = 0>, fillcolor="#e5813955"] ;
100 -> 101 ;
102 [label=<LearningResourceType.PROBLEM_STATEMENT &le; 0.5<br/>gini = 0.459<br/>samples = 14<br/>value = [9, 5]<br/>class = 0>, fillcolor="#e5813971"] ;
101 -> 102 ;
103 [label=<InteractivityLevel.VERY_LOW &le; 0.5<br/>gini = 0.426<br/>samples = 13<br/>value = [9, 4]<br/>class = 0>, fillcolor="#e581398e"] ;
102 -> 103 ;
104 [label=<gini = 0.0<br/>samples = 1<br/>value = [1, 0]<br/>class = 0>, fillcolor="#e58139ff"] ;
103 -> 104 ;
105 [label=<Format.IMAGE_PNG &le; 0.5<br/>gini = 0.444<br/>samples = 12<br/>value = [8, 4]<br/>class = 0>, fillcolor="#e581397f"] ;
103 -> 105 ;
106 [label=<LearningResourceType.QUESTIONNAIRE &le; 0.5<br/>gini = 0.463<br/>samples = 11<br/>value = [7, 4]<br/>class = 0>, fillcolor="#e581396d"] ;
105 -> 106 ;
107 [label=<MoreThanOneConcept &le; 0.5<br/>gini = 0.48<br/>samples = 10<br/>value = [6, 4]<br/>class = 0>, fillcolor="#e5813955"] ;
106 -> 107 ;
108 [label=<LearningResourceType.TABLE &le; 0.5<br/>gini = 0.5<br/>samples = 6<br/>value = [3, 3]<br/>class = 0>, fillcolor="#e5813900"] ;
107 -> 108 ;
109 [label=<LearningResourceType.FIGURE &le; 0.5<br/>gini = 0.48<br/>samples = 5<br/>value = [3, 2]<br/>class = 0>, fillcolor="#e5813955"] ;
108 -> 109 ;
110 [label=<gini = 0.444<br/>samples = 3<br/>value = [2, 1]<br/>class = 0>, fillcolor="#e581397f"] ;
109 -> 110 ;
111 [label=<gini = 0.5<br/>samples = 2<br/>value = [1, 1]<br/>class = 0>, fillcolor="#e5813900"] ;
109 -> 111 ;
112 [label=<gini = 0.0<br/>samples = 1<br/>value = [0, 1]<br/>class = 1>, fillcolor="#399de5ff"] ;
108 -> 112 ;
113 [label=<LearningResourceType.TABLE &le; 0.5<br/>gini = 0.375<br/>samples = 4<br/>value = [3, 1]<br/>class = 0>, fillcolor="#e58139aa"] ;
107 -> 113 ;
114 [label=<gini = 0.444<br/>samples = 3<br/>value = [2, 1]<br/>class = 0>, fillcolor="#e581397f"] ;
113 -> 114 ;
115 [label=<gini = 0.0<br/>samples = 1<br/>value = [1, 0]<br/>class = 0>, fillcolor="#e58139ff"] ;
113 -> 115 ;
116 [label=<gini = 0.0<br/>samples = 1<br/>value = [1, 0]<br/>class = 0>, fillcolor="#e58139ff"] ;
106 -> 116 ;
117 [label=<gini = 0.0<br/>samples = 1<br/>value = [1, 0]<br/>class = 0>, fillcolor="#e58139ff"] ;
105 -> 117 ;
118 [label=<gini = 0.0<br/>samples = 1<br/>value = [0, 1]<br/>class = 1>, fillcolor="#399de5ff"] ;
102 -> 118 ;
119 [label=<gini = 0.0<br/>samples = 1<br/>value = [0, 1]<br/>class = 1>, fillcolor="#399de5ff"] ;
101 -> 119 ;
120 [label=<gini = 0.0<br/>samples = 4<br/>value = [0, 4]<br/>class = 1>, fillcolor="#399de5ff"] ;
100 -> 120 ;
}