digraph Tree {
node [shape=box, style="filled, rounded", color="black", fontname=helvetica] ;
edge [fontname=helvetica] ;
0 [label=<Difficulty.DIFFICULT &le; 0.5<br/>gini = 0.284<br/>samples = 198<br/>value = [164, 34]<br/>class = 0>, fillcolor="#e58139ca"] ;
1 [label=<LearningResourceType.FIGURE &le; 0.5<br/>gini = 0.236<br/>samples = 161<br/>value = [139, 22]<br/>class = 0>, fillcolor="#e58139d7"] ;
0 -> 1 [labeldistance=2.5, labelangle=45, headlabel="True"] ;
2 [label=<Difficulty.MEDIUM &le; 0.5<br/>gini = 0.296<br/>samples = 94<br/>value = [77, 17]<br/>class = 0>, fillcolor="#e58139c7"] ;
1 -> 2 ;
3 [label=<gini = 0.388<br/>samples = 38<br/>value = [28, 10]<br/>class = 0>, fillcolor="#e58139a4"] ;
2 -> 3 ;
4 [label=<gini = 0.219<br/>samples = 56<br/>value = [49, 7]<br/>class = 0>, fillcolor="#e58139db"] ;
2 -> 4 ;
5 [label=<Difficulty.MEDIUM &le; 0.5<br/>gini = 0.138<br/>samples = 67<br/>value = [62, 5]<br/>class = 0>, fillcolor="#e58139ea"] ;
1 -> 5 ;
6 [label=<gini = 0.054<br/>samples = 36<br/>value = [35, 1]<br/>class = 0>, fillcolor="#e58139f8"] ;
5 -> 6 ;
7 [label=<gini = 0.225<br/>samples = 31<br/>value = [27, 4]<br/>class = 0>, fillcolor="#e58139d9"] ;
5 -> 7 ;
8 [label=<gini = 0.438<br/>samples = 37<br/>value = [25, 12]<br/>class = 0>, fillcolor="#e5813985"] ;
0 -> 8 [labeldistance=2.5, labelangle=-45, headlabel="False"] ;
}