digraph Tree {
node [shape=box, style="filled, rounded", color="black", fontname=helvetica] ;
edge [fontname=helvetica] ;
0 [label=<LearningResourceType.GRAPH &le; 0.5<br/>gini = 0.496<br/>samples = 198<br/>value = [108, 90]<br/>class = 0>, fillcolor="#e581392a"] ;
1 [label=<Understanding_sequential &le; 0.5<br/>gini = 0.494<br/>samples = 189<br/>value = [105, 84]<br/>class = 0>, fillcolor="#e5813933"] ;
0 -> 1 [labeldistance=2.5, labelangle=45, headlabel="True"] ;
2 [label=<InteractivityLevel.VERY_LOW &le; 0.5<br/>gini = 0.491<br/>samples = 176<br/>value = [100, 76]<br/>class = 0>, fillcolor="#e581393d"] ;
1 -> 2 ;
3 [label=<Difficulty.VERY_EASY &le; 0.5<br/>gini = 0.434<br/>samples = 22<br/>value = [15, 7]<br/>class = 0>, fillcolor="#e5813988"] ;
2 -> 3 ;
4 [label=<Difficulty.DIFFICULT &le; 0.5<br/>gini = 0.475<br/>samples = 18<br/>value = [11, 7]<br/>class = 0>, fillcolor="#e581395d"] ;
3 -> 4 ;
5 [label=<LearningResourceType.PROBLEM_STATEMENT &le; 0.5<br/>gini = 0.5<br/>samples = 12<br/>value = [6, 6]<br/>class = 0>, fillcolor="#e5813900"] ;
4 -> 5 ;
6 [label=<Processing_active &le; 0.5<br/>gini = 0.48<br/>samples = 10<br/>value = [4, 6]<br/>class = 1>, fillcolor="#399de555"] ;
5 -> 6 ;
7 [label=<gini = 0.0<br/>samples = 4<br/>value = [0, 4]<br/>class = 1>, fillcolor="#399de5ff"] ;
6 -> 7 ;
8 [label=<LearningResourceType.FIGURE &le; 0.5<br/>gini = 0.444<br/>samples = 6<br/>value = [4, 2]<br/>class = 0>, fillcolor="#e581397f"] ;
6 -> 8 ;
9 [label=<LearningResourceType.NARRATIVE_TEXT &le; 0.5<br/>gini = 0.32<br/>samples = 5<br/>value = [4, 1]<br/>class = 0>, fillcolor="#e58139bf"] ;
8 -> 9 ;
10 [label=<gini = 0.0<br/>samples = 2<br/>value = [2, 0]<br/>class = 0>, fillcolor="#e58139ff"] ;
9 -> 10 ;
11 [label=<MoreThanOneConcept &le; 0.5<br/>gini = 0.444<br/>samples = 3<br/>value = [2, 1]<br/>class = 0>, fillcolor="#e581397f"] ;
9 -> 11 ;
12 [label=<gini = 0.5<br/>samples = 2<br/>value = [1, 1]<br/>class = 0>, fillcolor="#e5813900"] ;
11 -> 12 ;
13 [label=<gini = 0.0<br/>samples = 1<br/>value = [1, 0]<br/>class = 0>, fillcolor="#e58139ff"] ;
11 -> 13 ;
14 [label=<gini = 0.0<br/>samples = 1<br/>value = [0, 1]<br/>class = 1>, fillcolor="#399de5ff"] ;
8 -> 14 ;
15 [label=<gini = 0.0<br/>samples = 2<br/>value = [2, 0]<br/>class = 0>, fillcolor="#e58139ff"] ;
5 -> 15 ;
16 [label=<Processing_reflective &le; 0.5<br/>gini = 0.278<br/>samples = 6<br/>value = [5, 1]<br/>class = 0>, fillcolor="#e58139cc"] ;
4 -> 16 ;
17 [label=<gini = 0.0<br/>samples = 5<br/>value = [5, 0]<br/>class = 0>, fillcolor="#e58139ff"] ;
16 -> 17 ;
18 [label=<gini = 0.0<br/>samples = 1<br/>value = [0, 1]<br/>class = 1>, fillcolor="#399de5ff"] ;
16 -> 18 ;
19 [label=<gini = 0.0<br/>samples = 4<br/>value = [4, 0]<br/>class = 0>, fillcolor="#e58139ff"] ;
3 -> 19 ;
20 [label=<InteractivityType.MIXED &le; 0.5<br/>gini = 0.495<br/>samples = 154<br/>value = [85, 69]<br/>class = 0>, fillcolor="#e5813930"] ;
2 -> 20 ;
21 [label=<LearningResourceType.NARRATIVE_TEXT &le; 0.5<br/>gini = 0.488<br/>samples = 130<br/>value = [75, 55]<br/>class = 0>, fillcolor="#e5813944"] ;
20 -> 21 ;
22 [label=<Perception_intuitive &le; 0.5<br/>gini = 0.495<br/>samples = 31<br/>value = [14, 17]<br/>class = 1>, fillcolor="#399de52d"] ;
21 -> 22 ;
23 [label=<Difficulty.DIFFICULT &le; 0.5<br/>gini = 0.415<br/>samples = 17<br/>value = [5, 12]<br/>class = 1>, fillcolor="#399de595"] ;
22 -> 23 ;
24 [label=<Difficulty.VERY_EASY &le; 0.5<br/>gini = 0.32<br/>samples = 15<br/>value = [3, 12]<br/>class = 1>, fillcolor="#399de5bf"] ;
23 -> 24 ;
25 [label=<Perception_sensory &le; 0.5<br/>gini = 0.42<br/>samples = 10<br/>value = [3, 7]<br/>class = 1>, fillcolor="#399de592"] ;
24 -> 25 ;
26 [label=<MoreThanOneConcept &le; 0.5<br/>gini = 0.346<br/>samples = 9<br/>value = [2, 7]<br/>class = 1>, fillcolor="#399de5b6"] ;
25 -> 26 ;
27 [label=<gini = 0.0<br/>samples = 5<br/>value = [0, 5]<br/>class = 1>, fillcolor="#399de5ff"] ;
26 -> 27 ;
28 [label=<Representation_visual &le; 0.5<br/>gini = 0.5<br/>samples = 4<br/>value = [2, 2]<br/>class = 0>, fillcolor="#e5813900"] ;
26 -> 28 ;
29 [label=<gini = 0.444<br/>samples = 3<br/>value = [2, 1]<br/>class = 0>, fillcolor="#e581397f"] ;
28 -> 29 ;
30 [label=<gini = 0.0<br/>samples = 1<br/>value = [0, 1]<br/>class = 1>, fillcolor="#399de5ff"] ;
28 -> 30 ;
31 [label=<gini = 0.0<br/>samples = 1<br/>value = [1, 0]<br/>class = 0>, fillcolor="#e58139ff"] ;
25 -> 31 ;
32 [label=<gini = 0.0<br/>samples = 5<br/>value = [0, 5]<br/>class = 1>, fillcolor="#399de5ff"] ;
24 -> 32 ;
33 [label=<gini = 0.0<br/>samples = 2<br/>value = [2, 0]<br/>class = 0>, fillcolor="#e58139ff"] ;
23 -> 33 ;
34 [label=<LearningResourceType.SIMULATION &le; 0.5<br/>gini = 0.459<br/>samples = 14<br/>value = [9, 5]<br/>class = 0>, fillcolor="#e5813971"] ;
22 -> 34 ;
35 [label=<MoreThanOneConcept &le; 0.5<br/>gini = 0.48<br/>samples = 10<br/>value = [6, 4]<br/>class = 0>, fillcolor="#e5813955"] ;
34 -> 35 ;
36 [label=<LearningResourceType.FIGURE &le; 0.5<br/>gini = 0.5<br/>samples = 6<br/>value = [3, 3]<br/>class = 0>, fillcolor="#e5813900"] ;
35 -> 36 ;
37 [label=<gini = 0.0<br/>samples = 1<br/>value = [0, 1]<br/>class = 1>, fillcolor="#399de5ff"] ;
36 -> 37 ;
38 [label=<Difficulty.VERY_EASY &le; 0.5<br/>gini = 0.48<br/>samples = 5<br/>value = [3, 2]<br/>class = 0>, fillcolor="#e5813955"] ;
36 -> 38 ;
39 [label=<gini = 0.5<br/>samples = 2<br/>value = [1, 1]<br/>class = 0>, fillcolor="#e5813900"] ;
38 -> 39 ;
40 [label=<gini = 0.444<br/>samples = 3<br/>value = [2, 1]<br/>class = 0>, fillcolor="#e581397f"] ;
38 -> 40 ;
41 [label=<LearningResourceType.DIAGRAM &le; 0.5<br/>gini = 0.375<br/>samples = 4<br/>value = [3, 1]<br/>class = 0>, fillcolor="#e58139aa"] ;
35 -> 41 ;
42 [label=<Difficulty.VERY_EASY &le; 0.5<br/>gini = 0.5<br/>samples = 2<br/>value = [1, 1]<br/>class = 0>, fillcolor="#e5813900"] ;
41 -> 42 ;
43 [label=<gini = 0.0<br/>samples = 1<br/>value = [1, 0]<br/>class = 0>, fillcolor="#e58139ff"] ;
42 -> 43 ;
44 [label=<gini = 0.0<br/>samples = 1<br/>value = [0, 1]<br/>class = 1>, fillcolor="#399de5ff"] ;
42 -> 44 ;
45 [label=<gini = 0.0<br/>samples = 2<br/>value = [2, 0]<br/>class = 0>, fillcolor="#e58139ff"] ;
41 -> 45 ;
46 [label=<Difficulty.VERY_EASY &le; 0.5<br/>gini = 0.375<br/>samples = 4<br/>value = [3, 1]<br/>class = 0>, fillcolor="#e58139aa"] ;
34 -> 46 ;
47 [label=<gini = 0.5<br/>samples = 2<br/>value = [1, 1]<br/>class = 0>, fillcolor="#e5813900"] ;
46 -> 47 ;
48 [label=<gini = 0.0<br/>samples = 2<br/>value = [2, 0]<br/>class = 0>, fillcolor="#e58139ff"] ;
46 -> 48 ;
49 [label=<Difficulty.DIFFICULT &le; 0.5<br/>gini = 0.473<br/>samples = 99<br/>value = [61, 38]<br/>class = 0>, fillcolor="#e5813960"] ;
21 -> 49 ;
50 [label=<LearningResourceType.EXERCISE &le; 0.5<br/>gini = 0.453<br/>samples = 78<br/>value = [51, 27]<br/>class = 0>, fillcolor="#e5813978"] ;
49 -> 50 ;
51 [label=<LearningResourceType.TABLE &le; 0.5<br/>gini = 0.447<br/>samples = 77<br/>value = [51, 26]<br/>class = 0>, fillcolor="#e581397d"] ;
50 -> 51 ;
52 [label=<Format.IMAGE_PNG &le; 0.5<br/>gini = 0.474<br/>samples = 57<br/>value = [35, 22]<br/>class = 0>, fillcolor="#e581395f"] ;
51 -> 52 ;
53 [label=<LearningResourceType.DIAGRAM &le; 0.5<br/>gini = 0.461<br/>samples = 50<br/>value = [32, 18]<br/>class = 0>, fillcolor="#e5813970"] ;
52 -> 53 ;
54 [label=<Difficulty.VERY_DIFFICULT &le; 0.5<br/>gini = 0.428<br/>samples = 29<br/>value = [20, 9]<br/>class = 0>, fillcolor="#e581398c"] ;
53 -> 54 ;
55 [label=<MoreThanOneConcept &le; 0.5<br/>gini = 0.408<br/>samples = 28<br/>value = [20, 8]<br/>class = 0>, fillcolor="#e5813999"] ;
54 -> 55 ;
56 [label=<Difficulty.VERY_EASY &le; 0.5<br/>gini = 0.434<br/>samples = 22<br/>value = [15, 7]<br/>class = 0>, fillcolor="#e5813988"] ;
55 -> 56 ;
57 [label=<Representation_verbal &le; 0.5<br/>gini = 0.346<br/>samples = 9<br/>value = [7, 2]<br/>class = 0>, fillcolor="#e58139b6"] ;
56 -> 57 ;
58 [label=<gini = 0.0<br/>samples = 3<br/>value = [3, 0]<br/>class = 0>, fillcolor="#e58139ff"] ;
57 -> 58 ;
59 [label=<gini = 0.444<br/>samples = 6<br/>value = [4, 2]<br/>class = 0>, fillcolor="#e581397f"] ;
57 -> 59 ;
60 [label=<Understanding_global &le; 0.5<br/>gini = 0.473<br/>samples = 13<br/>value = [8, 5]<br/>class = 0>, fillcolor="#e5813960"] ;
56 -> 60 ;
61 [label=<Format.VIDEO_MP4 &le; 0.5<br/>gini = 0.278<br/>samples = 6<br/>value = [5, 1]<br/>class = 0>, fillcolor="#e58139cc"] ;
60 -> 61 ;
62 [label=<gini = 0.0<br/>samples = 3<br/>value = [3, 0]<br/>class = 0>, fillcolor="#e58139ff"] ;
61 -> 62 ;
63 [label=<LearningResourceType.SLIDE &le; 0.5<br/>gini = 0.444<br/>samples = 3<br/>value = [2, 1]<br/>class = 0>, fillcolor="#e581397f"] ;
61 -> 63 ;
64 [label=<gini = 0.0<br/>samples = 1<br/>value = [0, 1]<br/>class = 1>, fillcolor="#399de5ff"] ;
63 -> 64 ;
65 [label=<gini = 0.0<br/>samples = 2<br/>value = [2, 0]<br/>class = 0>, fillcolor="#e58139ff"] ;
63 -> 65 ;
66 [label=<Format.VIDEO_MP4 &le; 0.5<br/>gini = 0.49<br/>samples = 7<br/>value = [3, 4]<br/>class = 1>, fillcolor="#399de540"] ;
60 -> 66 ;
67 [label=<gini = 0.5<br/>samples = 4<br/>value = [2, 2]<br/>class = 0>, fillcolor="#e5813900"] ;
66 -> 67 ;
68 [label=<gini = 0.444<br/>samples = 3<br/>value = [1, 2]<br/>class = 1>, fillcolor="#399de57f"] ;
66 -> 68 ;
69 [label=<LearningResourceType.FIGURE &le; 0.5<br/>gini = 0.278<br/>samples = 6<br/>value = [5, 1]<br/>class = 0>, fillcolor="#e58139cc"] ;
55 -> 69 ;
70 [label=<Format.APPLICATION_PDF &le; 0.5<br/>gini = 0.375<br/>samples = 4<br/>value = [3, 1]<br/>class = 0>, fillcolor="#e58139aa"] ;
69 -> 70 ;
71 [label=<gini = 0.0<br/>samples = 1<br/>value = [1, 0]<br/>class = 0>, fillcolor="#e58139ff"] ;
70 -> 71 ;
72 [label=<Difficulty.MEDIUM &le; 0.5<br/>gini = 0.444<br/>samples = 3<br/>value = [2, 1]<br/>class = 0>, fillcolor="#e581397f"] ;
70 -> 72 ;
73 [label=<gini = 0.0<br/>samples = 1<br/>value = [1, 0]<br/>class = 0>, fillcolor="#e58139ff"] ;
72 -> 73 ;
74 [label=<gini = 0.5<br/>samples = 2<br/>value = [1, 1]<br/>class = 0>, fillcolor="#e5813900"] ;
72 -> 74 ;
75 [label=<gini = 0.0<br/>samples = 2<br/>value = [2, 0]<br/>class = 0>, fillcolor="#e58139ff"] ;
69 -> 75 ;
76 [label=<gini = 0.0<br/>samples = 1<br/>value = [0, 1]<br/>class = 1>, fillcolor="#399de5ff"] ;
54 -> 76 ;
77 [label=<Difficulty.VERY_DIFFICULT &le; 0.5<br/>gini = 0.49<br/>samples = 21<br/>value = [12, 9]<br/>class = 0>, fillcolor="#e5813940"] ;
53 -> 77 ;
78 [label=<LearningResourceType.PROBLEM_STATEMENT &le; 0.5<br/>gini = 0.5<br/>samples = 18<br/>value = [9, 9]<br/>class = 0>, fillcolor="#e5813900"] ;
77 -> 78 ;
79 [label=<Difficulty.VERY_EASY &le; 0.5<br/>gini = 0.498<br/>samples = 15<br/>value = [7, 8]<br/>class = 1>, fillcolor="#399de520"] ;
78 -> 79 ;
80 [label=<MoreThanOneConcept &le; 0.5<br/>gini = 0.486<br/>samples = 12<br/>value = [5, 7]<br/>class = 1>, fillcolor="#399de549"] ;
79 -> 80 ;
81 [label=<Format.APPLICATION_PDF &le; 0.5<br/>gini = 0.444<br/>samples = 9<br/>value = [3, 6]<br/>class = 1>, fillcolor="#399de57f"] ;
80 -> 81 ;
82 [label=<gini = 0.5<br/>samples = 4<br/>value = [2, 2]<br/>class = 0>, fillcolor="#e5813900"] ;
81 -> 82 ;
83 [label=<Understanding_global &le; 0.5<br/>gini = 0.32<br/>samples = 5<br/>value = [1, 4]<br/>class = 1>, fillcolor="#399de5bf"] ;
81 -> 83 ;
84 [label=<gini = 0.375<br/>samples = 4<br/>value = [1, 3]<br/>class = 1>, fillcolor="#399de5aa"] ;
83 -> 84 ;
85 [label=<gini = 0.0<br/>samples = 1<br/>value = [0, 1]<br/>class = 1>, fillcolor="#399de5ff"] ;
83 -> 85 ;
86 [label=<Format.APPLICATION_PDF &le; 0.5<br/>gini = 0.444<br/>samples = 3<br/>value = [2, 1]<br/>class = 0>, fillcolor="#e581397f"] ;
80 -> 86 ;
87 [label=<gini = 0.5<br/>samples = 2<br/>value = [1, 1]<br/>class = 0>, fillcolor="#e5813900"] ;
86 -> 87 ;
88 [label=<gini = 0.0<br/>samples = 1<br/>value = [1, 0]<br/>class = 0>, fillcolor="#e58139ff"] ;
86 -> 88 ;
89 [label=<Representation_visual &le; 0.5<br/>gini = 0.444<br/>samples = 3<br/>value = [2, 1]<br/>class = 0>, fillcolor="#e581397f"] ;
79 -> 89 ;
90 [label=<gini = 0.0<br/>samples = 1<br/>value = [1, 0]<br/>class = 0>, fillcolor="#e58139ff"] ;
89 -> 90 ;
91 [label=<MoreThanOneConcept &le; 0.5<br/>gini = 0.5<br/>samples = 2<br/>value = [1, 1]<br/>class = 0>, fillcolor="#e5813900"] ;
89 -> 91 ;
92 [label=<gini = 0.0<br/>samples = 1<br/>value = [1, 0]<br/>class = 0>, fillcolor="#e58139ff"] ;
91 -> 92 ;
93 [label=<gini = 0.0<br/>samples = 1<br/>value = [0, 1]<br/>class = 1>, fillcolor="#399de5ff"] ;
91 -> 93 ;
94 [label=<Format.APPLICATION_PDF &le; 0.5<br/>gini = 0.444<br/>samples = 3<br/>value = [2, 1]<br/>class = 0>, fillcolor="#e581397f"] ;
78 -> 94 ;
95 [label=<gini = 0.0<br/>samples = 1<br/>value = [1, 0]<br/>class = 0>, fillcolor="#e58139ff"] ;
94 -> 95 ;
96 [label=<Understanding_global &le; 0.5<br/>gini = 0.5<br/>samples = 2<br/>value = [1, 1]<br/>class = 0>, fillcolor="#e5813900"] ;
94 -> 96 ;
97 [label=<gini = 0.0<br/>samples = 1<br/>value = [0, 1]<br/>class = 1>, fillcolor="#399de5ff"] ;
96 -> 97 ;
98 [label=<gini = 0.0<br/>samples = 1<br/>value = [1, 0]<br/>class = 0>, fillcolor="#e58139ff"] ;
96 -> 98 ;
99 [label=<gini = 0.0<br/>samples = 3<br/>value = [3, 0]<br/>class = 0>, fillcolor="#e58139ff"] ;
77 -> 99 ;
100 [label=<Difficulty.VERY_EASY &le; 0.5<br/>gini = 0.49<br/>samples = 7<br/>value = [3, 4]<br/>class = 1>, fillcolor="#399de540"] ;
52 -> 100 ;
101 [label=<gini = 0.0<br/>samples = 3<br/>value = [3, 0]<br/>class = 0>, fillcolor="#e58139ff"] ;
100 -> 101 ;
102 [label=<gini = 0.0<br/>samples = 4<br/>value = [0, 4]<br/>class = 1>, fillcolor="#399de5ff"] ;
100 -> 102 ;
103 [label=<LearningResourceType.SIMULATION &le; 0.5<br/>gini = 0.32<br/>samples = 20<br/>value = [16, 4]<br/>class = 0>, fillcolor="#e58139bf"] ;
51 -> 103 ;
104 [label=<Representation_visual &le; 0.5<br/>gini = 0.266<br/>samples = 19<br/>value = [16, 3]<br/>class = 0>, fillcolor="#e58139cf"] ;
103 -> 104 ;
105 [label=<Difficulty.MEDIUM &le; 0.5<br/>gini = 0.408<br/>samples = 7<br/>value = [5, 2]<br/>class = 0>, fillcolor="#e5813999"] ;
104 -> 105 ;
106 [label=<gini = 0.0<br/>samples = 4<br/>value = [4, 0]<br/>class = 0>, fillcolor="#e58139ff"] ;
105 -> 106 ;
107 [label=<Format.VIDEO_MP4 &le; 0.5<br/>gini = 0.444<br/>samples = 3<br/>value = [1, 2]<br/>class = 1>, fillcolor="#399de57f"] ;
105 -> 107 ;
108 [label=<gini = 0.5<br/>samples = 2<br/>value = [1, 1]<br/>class = 0>, fillcolor="#e5813900"] ;
107 -> 108 ;
109 [label=<gini = 0.0<br/>samples = 1<br/>value = [0, 1]<br/>class = 1>, fillcolor="#399de5ff"] ;
107 -> 109 ;
110 [label=<Difficulty.VERY_EASY &le; 0.5<br/>gini = 0.153<br/>samples = 12<br/>value = [11, 1]<br/>class = 0>, fillcolor="#e58139e8"] ;
104 -> 110 ;
111 [label=<gini = 0.0<br/>samples = 9<br/>value = [9, 0]<br/>class = 0>, fillcolor="#e58139ff"] ;
110 -> 111 ;
112 [label=<LearningResourceType.DIAGRAM &le; 0.5<br/>gini = 0.444<br/>samples = 3<br/>value = [2, 1]<br/>class = 0>, fillcolor="#e581397f"] ;
110 -> 112 ;
113 [label=<gini = 0.0<br/>samples = 1<br/>value = [1, 0]<br/>class = 0>, fillcolor="#e58139ff"] ;
112 -> 113 ;
114 [label=<gini = 0.5<br/>samples = 2<br/>value = [1, 1]<br/>class = 0>, fillcolor="#e5813900"] ;
112 -> 114 ;
115 [label=<gini = 0.0<br/>samples = 1<br/>value = [0, 1]<br/>class = 1>, fillcolor="#399de5ff"] ;
103 -> 115 ;
116 [label=<gini = 0.0<br/>samples = 1<br/>value = [0, 1]<br/>class = 1>, fillcolor="#399de5ff"] ;
50 -> 116 ;
117 [label=<LearningResourceType.FIGURE &le; 0.5<br/>gini = 0.499<br/>samples = 21<br/>value = [10, 11]<br/>class = 1>, fillcolor="#399de517"] ;
49 -> 117 ;
118 [label=<LearningResourceType.PROBLEM_STATEMENT &le; 0.5<br/>gini = 0.48<br/>samples = 10<br/>value = [6, 4]<br/>class = 0>, fillcolor="#e5813955"] ;
117 -> 118 ;
119 [label=<Representation_verbal &le; 0.5<br/>gini = 0.444<br/>samples = 9<br/>value = [6, 3]<br/>class = 0>, fillcolor="#e581397f"] ;
118 -> 119 ;
120 [label=<Perception_intuitive &le; 0.5<br/>gini = 0.278<br/>samples = 6<br/>value = [5, 1]<br/>class = 0>, fillcolor="#e58139cc"] ;
119 -> 120 ;
121 [label=<gini = 0.0<br/>samples = 3<br/>value = [3, 0]<br/>class = 0>, fillcolor="#e58139ff"] ;
120 -> 121 ;
122 [label=<gini = 0.444<br/>samples = 3<br/>value = [2, 1]<br/>class = 0>, fillcolor="#e581397f"] ;
120 -> 122 ;
123 [label=<MoreThanOneConcept &le; 0.5<br/>gini = 0.444<br/>samples = 3<br/>value = [1, 2]<br/>class = 1>, fillcolor="#399de57f"] ;
119 -> 123 ;
124 [label=<gini = 0.5<br/>samples = 2<br/>value = [1, 1]<br/>class = 0>, fillcolor="#e5813900"] ;
123 -> 124 ;
125 [label=<gini = 0.0<br/>samples = 1<br/>value = [0, 1]<br/>class = 1>, fillcolor="#399de5ff"] ;
123 -> 125 ;
126 [label=<gini = 0.0<br/>samples = 1<br/>value = [0, 1]<br/>class = 1>, fillcolor="#399de5ff"] ;
118 -> 126 ;
127 [label=<Format.IMAGE_PNG &le; 0.5<br/>gini = 0.463<br/>samples = 11<br/>value = [4, 7]<br/>class = 1>, fillcolor="#399de56d"] ;
117 -> 127 ;
128 [label=<LearningResourceType.TABLE &le; 0.5<br/>gini = 0.42<br/>samples = 10<br/>value = [3, 7]<br/>class = 1>, fillcolor="#399de592"] ;
127 -> 128 ;
129 [label=<LearningResourceType.SLIDE &le; 0.5<br/>gini = 0.469<br/>samples = 8<br/>value = [3, 5]<br/>class = 1>, fillcolor="#399de566"] ;
128 -> 129 ;
130 [label=<LearningResourceType.DIAGRAM &le; 0.5<br/>gini = 0.48<br/>samples = 5<br/>value = [2, 3]<br/>class = 1>, fillcolor="#399de555"] ;
129 -> 130 ;
131 [label=<gini = 0.5<br/>samples = 2<br/>value = [1, 1]<br/>class = 0>, fillcolor="#e5813900"] ;
130 -> 131 ;
132 [label=<gini = 0.444<br/>samples = 3<br/>value = [1, 2]<br/>class = 1>, fillcolor="#399de57f"] ;
130 -> 132 ;
133 [label=<gini = 0.444<br/>samples = 3<br/>value = [1, 2]<br/>class = 1>, fillcolor="#399de57f"] ;
129 -> 133 ;
134 [label=<gini = 0.0<br/>samples = 2<br/>value = [0, 2]<br/>class = 1>, fillcolor="#399de5ff"] ;
128 -> 134 ;
135 [label=<gini = 0.0<br/>samples = 1<br/>value = [1, 0]<br/>class = 0>, fillcolor="#e58139ff"] ;
127 -> 135 ;
136 [label=<Difficulty.VERY_EASY &le; 0.5<br/>gini = 0.486<br/>samples = 24<br/>value = [10, 14]<br/>class = 1>, fillcolor="#399de549"] ;
20 -> 136 ;
137 [label=<LearningResourceType.TABLE &le; 0.5<br/>gini = 0.36<br/>samples = 17<br/>value = [4, 13]<br/>class = 1>, fillcolor="#399de5b1"] ;
136 -> 137 ;
138 [label=<gini = 0.0<br/>samples = 7<br/>value = [0, 7]<br/>class = 1>, fillcolor="#399de5ff"] ;
137 -> 138 ;
139 [label=<Difficulty.MEDIUM &le; 0.5<br/>gini = 0.48<br/>samples = 10<br/>value = [4, 6]<br/>class = 1>, fillcolor="#399de555"] ;
137 -> 139 ;
140 [label=<gini = 0.0<br/>samples = 5<br/>value = [0, 5]<br/>class = 1>, fillcolor="#399de5ff"] ;
139 -> 140 ;
141 [label=<Representation_visual &le; 0.5<br/>gini = 0.32<br/>samples = 5<br/>value = [4, 1]<br/>class = 0>, fillcolor="#e58139bf"] ;
139 -> 141 ;
142 [label=<gini = 0.0<br/>samples = 1<br/>value = [0, 1]<br/>class = 1>, fillcolor="#399de5ff"] ;
141 -> 142 ;
143 [label=<gini = 0.0<br/>samples = 4<br/>value = [4, 0]<br/>class = 0>, fillcolor="#e58139ff"] ;
141 -> 143 ;
144 [label=<LearningResourceType.PROBLEM_STATEMENT &le; 0.5<br/>gini = 0.245<br/>samples = 7<br/>value = [6, 1]<br/>class = 0>, fillcolor="#e58139d4"] ;
136 -> 144 ;
145 [label=<gini = 0.0<br/>samples = 5<br/>value = [5, 0]<br/>class = 0>, fillcolor="#e58139ff"] ;
144 -> 145 ;
146 [label=<gini = 0.5<br/>samples = 2<br/>value = [1, 1]<br/>class = 0>, fillcolor="#e5813900"] ;
144 -> 146 ;
147 [label=<Processing_active &le; 0.5<br/>gini = 0.473<br/>samples = 13<br/>value = [5, 8]<br/>class = 1>, fillcolor="#399de560"] ;
1 -> 147 ;
148 [label=<Processing_reflective &le; 0.5<br/>gini = 0.494<br/>samples = 9<br/>value = [5, 4]<br/>class = 0>, fillcolor="#e5813933"] ;
147 -> 148 ;
149 [label=<gini = 0.0<br/>samples = 2<br/>value = [2, 0]<br/>class = 0>, fillcolor="#e58139ff"] ;
148 -> 149 ;
150 [label=<Format.VIDEO_MP4 &le; 0.5<br/>gini = 0.49<br/>samples = 7<br/>value = [3, 4]<br/>class = 1>, fillcolor="#399de540"] ;
148 -> 150 ;
151 [label=<gini = 0.0<br/>samples = 2<br/>value = [0, 2]<br/>class = 1>, fillcolor="#399de5ff"] ;
150 -> 151 ;
152 [label=<InteractivityType.MIXED &le; 0.5<br/>gini = 0.48<br/>samples = 5<br/>value = [3, 2]<br/>class = 0>, fillcolor="#e5813955"] ;
150 -> 152 ;
153 [label=<Difficulty.DIFFICULT &le; 0.5<br/>gini = 0.444<br/>samples = 3<br/>value = [1, 2]<br/>class = 1>, fillcolor="#399de57f"] ;
152 -> 153 ;
154 [label=<gini = 0.0<br/>samples = 2<br/>value = [0, 2]<br/>class = 1>, fillcolor="#399de5ff"] ;
153 -> 154 ;
155 [label=<gini = 0.0<br/>samples = 1<br/>value = [1, 0]<br/>class = 0>, fillcolor="#e58139ff"] ;
153 -> 155 ;
156 [label=<gini = 0.0<br/>samples = 2<br/>value = [2, 0]<br/>class = 0>, fillcolor="#e58139ff"] ;
152 -> 156 ;
157 [label=<gini = 0.0<br/>samples = 4<br/>value = [0, 4]<br/>class = 1>, fillcolor="#399de5ff"] ;
147 -> 157 ;
158 [label=<Difficulty.VERY_DIFFICULT &le; 0.5<br/>gini = 0.444<br/>samples = 9<br/>value = [3, 6]<br/>class = 1>, fillcolor="#399de57f"] ;
0 -> 158 [labeldistance=2.5, labelangle=-45, headlabel="False"] ;
159 [label=<LearningResourceType.SIMULATION &le; 0.5<br/>gini = 0.375<br/>samples = 8<br/>value = [2, 6]<br/>class = 1>, fillcolor="#399de5aa"] ;
158 -> 159 ;
160 [label=<Difficulty.DIFFICULT &le; 0.5<br/>gini = 0.245<br/>samples = 7<br/>value = [1, 6]<br/>class = 1>, fillcolor="#399de5d4"] ;
159 -> 160 ;
161 [label=<gini = 0.0<br/>samples = 4<br/>value = [0, 4]<br/>class = 1>, fillcolor="#399de5ff"] ;
160 -> 161 ;
162 [label=<LearningResourceType.TABLE &le; 0.5<br/>gini = 0.444<br/>samples = 3<br/>value = [1, 2]<br/>class = 1>, fillcolor="#399de57f"] ;
160 -> 162 ;
163 [label=<gini = 0.0<br/>samples = 2<br/>value = [0, 2]<br/>class = 1>, fillcolor="#399de5ff"] ;
162 -> 163 ;
164 [label=<gini = 0.0<br/>samples = 1<br/>value = [1, 0]<br/>class = 0>, fillcolor="#e58139ff"] ;
162 -> 164 ;
165 [label=<gini = 0.0<br/>samples = 1<br/>value = [1, 0]<br/>class = 0>, fillcolor="#e58139ff"] ;
159 -> 165 ;
166 [label=<gini = 0.0<br/>samples = 1<br/>value = [1, 0]<br/>class = 0>, fillcolor="#e58139ff"] ;
158 -> 166 ;
}