digraph Tree {
node [shape=box, style="filled, rounded", color="black", fontname=helvetica] ;
edge [fontname=helvetica] ;
0 [label=<LearningResourceType.TABLE &le; 0.5<br/>gini = 0.496<br/>samples = 198<br/>value = [108, 90]<br/>class = 0>, fillcolor="#e581392a"] ;
1 [label=<LearningResourceType.DIAGRAM &le; 0.5<br/>gini = 0.499<br/>samples = 137<br/>value = [71, 66]<br/>class = 0>, fillcolor="#e5813912"] ;
0 -> 1 [labeldistance=2.5, labelangle=45, headlabel="True"] ;
2 [label=<Format.VIDEO_MP4 &le; 0.5<br/>gini = 0.494<br/>samples = 83<br/>value = [46, 37]<br/>class = 0>, fillcolor="#e5813932"] ;
1 -> 2 ;
3 [label=<gini = 0.438<br/>samples = 34<br/>value = [23, 11]<br/>class = 0>, fillcolor="#e5813985"] ;
2 -> 3 ;
4 [label=<gini = 0.498<br/>samples = 49<br/>value = [23, 26]<br/>class = 1>, fillcolor="#399de51d"] ;
2 -> 4 ;
5 [label=<gini = 0.497<br/>samples = 54<br/>value = [25, 29]<br/>class = 1>, fillcolor="#399de523"] ;
1 -> 5 ;
6 [label=<Difficulty.MEDIUM &le; 0.5<br/>gini = 0.477<br/>samples = 61<br/>value = [37, 24]<br/>class = 0>, fillcolor="#e581395a"] ;
0 -> 6 [labeldistance=2.5, labelangle=-45, headlabel="False"] ;
7 [label=<gini = 0.489<br/>samples = 33<br/>value = [19, 14]<br/>class = 0>, fillcolor="#e5813943"] ;
6 -> 7 ;
8 [label=<gini = 0.459<br/>samples = 28<br/>value = [18, 10]<br/>class = 0>, fillcolor="#e5813971"] ;
6 -> 8 ;
}