digraph Tree {
node [shape=box, style="filled, rounded", color="black", fontname=helvetica] ;
edge [fontname=helvetica] ;
0 [label=<Format.APPLICATION_PDF &le; 0.5<br/>gini = 0.494<br/>samples = 198<br/>value = [110, 88]<br/>class = 0>, fillcolor="#e5813933"] ;
1 [label=<Perception_intuitive &le; 0.5<br/>gini = 0.497<br/>samples = 96<br/>value = [44, 52]<br/>class = 1>, fillcolor="#399de527"] ;
0 -> 1 [labeldistance=2.5, labelangle=45, headlabel="True"] ;
2 [label=<gini = 0.499<br/>samples = 55<br/>value = [29, 26]<br/>class = 0>, fillcolor="#e581391a"] ;
1 -> 2 ;
3 [label=<gini = 0.464<br/>samples = 41<br/>value = [15, 26]<br/>class = 1>, fillcolor="#399de56c"] ;
1 -> 3 ;
4 [label=<MoreThanOneConcept &le; 0.5<br/>gini = 0.457<br/>samples = 102<br/>value = [66, 36]<br/>class = 0>, fillcolor="#e5813974"] ;
0 -> 4 [labeldistance=2.5, labelangle=-45, headlabel="False"] ;
5 [label=<Perception_intuitive &le; 0.5<br/>gini = 0.421<br/>samples = 73<br/>value = [51, 22]<br/>class = 0>, fillcolor="#e5813991"] ;
4 -> 5 ;
6 [label=<gini = 0.375<br/>samples = 36<br/>value = [27, 9]<br/>class = 0>, fillcolor="#e58139aa"] ;
5 -> 6 ;
7 [label=<gini = 0.456<br/>samples = 37<br/>value = [24, 13]<br/>class = 0>, fillcolor="#e5813975"] ;
5 -> 7 ;
8 [label=<gini = 0.499<br/>samples = 29<br/>value = [15, 14]<br/>class = 0>, fillcolor="#e5813911"] ;
4 -> 8 ;
}